~o
<STREAMINFO> 1 39
<VECSIZE> 39<NULLD><MFCC_Z_0><DIAGC>
~h "M_gmmfea39d"
<BEGINHMM>
<NUMSTATES> 3
<STATE> 2
<NUMMIXES> 64
<MIXTURE> 1 7.522497e-003
<MEAN> 39
-1.003964e+000 9.130253e-001 -1.874757e-001 2.468802e-001 1.134617e+000 -5.804984e-001 6.378696e-001 1.399571e-001 -1.878678e-002 5.085480e-001 -5.944794e-001 2.911240e-001 -8.989216e-002 -1.401817e+000 2.741616e-001 -2.446060e-001 -4.156168e-001 4.575160e-001 -2.287159e-001 3.290420e-001 4.012101e-001 -1.116656e-001 1.099248e-001 -1.345455e-001 6.133903e-001 8.920137e-002 8.471032e-001 -1.134752e+000 3.325189e-001 -1.931223e-001 -1.240967e+000 4.111544e-001 -1.006155e+000 -1.935973e-001 1.051202e-001 -4.983663e-001 6.406580e-001 -5.429235e-001 6.339422e-001 
<VARIANCE> 39
5.959981e-001 6.698017e-001 6.066072e-001 4.789857e-001 5.652874e-001 7.183126e-001 7.376296e-001 7.852101e-001 9.291902e-001 7.538208e-001 8.348002e-001 8.616718e-001 5.533316e-001 1.350496e+000 1.131598e+000 1.157620e+000 1.129017e+000 8.261839e-001 1.167803e+000 1.131673e+000 1.282072e+000 1.257457e+000 1.052405e+000 1.167468e+000 1.329645e+000 1.353056e+000 9.718031e-001 1.124781e+000 1.167179e+000 9.485322e-001 8.461328e-001 1.163021e+000 1.134513e+000 1.287848e+000 1.253330e+000 1.020534e+000 1.043091e+000 1.223646e+000 8.975196e-001 
<GCONST> 6.978463e+001
<MIXTURE> 2 5.065307e-003
<MEAN> 39
2.743702e-001 2.799592e-001 1.965027e-002 7.827061e-002 -1.864629e-002 -5.164202e-002 -2.818430e-001 -6.423676e-001 -8.462015e-001 -1.291821e+000 -1.186993e+000 -1.053767e+000 2.717452e-002 3.178859e-001 2.373604e-001 3.143366e-001 -1.229776e-001 -6.272633e-002 -1.730094e-001 -3.399936e-001 -2.093851e-002 -3.351230e-001 4.847835e-003 -3.799594e-001 -1.798401e-001 1.194135e-001 -6.389001e-001 -3.589137e-001 -8.585962e-002 7.539175e-002 2.880119e-002 7.770569e-002 4.170466e-001 7.989169e-001 1.012364e+000 1.454778e+000 1.313943e+000 1.130057e+000 -3.375610e-001 
<VARIANCE> 39
6.966379e-001 8.387892e-001 1.022744e+000 7.416149e-001 9.521695e-001 1.045738e+000 1.233451e+000 1.068680e+000 1.055837e+000 8.919100e-001 9.078949e-001 8.647150e-001 6.546883e-001 1.207089e+000 1.336937e+000 1.193412e+000 1.523380e+000 1.268825e+000 1.161411e+000 1.283946e+000 1.152631e+000 1.330795e+000 1.239680e+000 1.519002e+000 1.128317e+000 1.549457e+000 9.763901e-001 1.060532e+000 1.074698e+000 1.038232e+000 1.198693e+000 1.215404e+000 1.275075e+000 1.105854e+000 1.164415e+000 9.768825e-001 9.848832e-001 9.115716e-001 1.205161e+000 
<GCONST> 7.481516e+001
<MIXTURE> 3 1.097135e-002
<MEAN> 39
4.004469e-001 8.279996e-001 9.737251e-001 1.083641e+000 2.310866e-001 7.238171e-002 -2.590159e-001 -3.805401e-001 -1.714842e-001 -2.518570e-001 -1.231078e-001 -5.316247e-001 -4.989337e-001 1.400256e-001 -4.201045e-001 7.949155e-001 -6.078353e-001 -7.273108e-001 -5.705699e-001 -5.214136e-001 -1.566055e-002 -2.759369e-001 -3.419746e-001 -1.153254e-001 5.460806e-002 1.642174e+000 -3.808970e-001 -1.079012e+000 -5.811371e-001 -1.113817e+000 -7.167978e-001 -3.550224e-001 1.670648e-002 5.547567e-001 -9.072474e-002 1.516455e-001 1.269887e-001 7.035555e-001 7.494968e-001 
<VARIANCE> 39
3.861288e-001 7.102427e-001 8.358656e-001 5.605785e-001 7.951957e-001 8.785182e-001 9.569259e-001 9.991268e-001 1.108658e+000 1.017255e+000 9.997351e-001 9.904261e-001 3.610922e-001 7.901205e-001 1.093315e+000 2.400721e+000 1.084440e+000 1.286394e+000 1.394848e+000 1.470133e+000 1.629547e+000 1.525339e+000 1.414986e+000 1.268666e+000 1.658449e+000 8.482439e-001 6.624660e-001 1.030847e+000 1.462510e+000 9.395360e-001 1.279798e+000 1.553855e+000 1.466462e+000 1.445893e+000 1.619407e+000 1.434724e+000 1.449658e+000 1.357991e+000 9.155105e-001 
<GCONST> 7.473842e+001
<MIXTURE> 4 4.722134e-003
<MEAN> 39
7.753269e-001 -2.824272e-001 -2.411946e-001 -2.468904e-001 6.016230e-001 -1.393867e-001 -1.510003e+000 -7.295009e-001 -7.516185e-002 1.117587e+000 -3.330093e-001 -3.293978e-001 5.283536e-001 -7.542998e-001 -1.899921e-001 8.766636e-001 1.331303e+000 2.210650e-001 -9.738375e-001 2.374068e-001 5.261396e-001 8.683119e-001 -3.779597e-001 -4.385793e-001 -2.144632e-001 -2.157698e-001 -7.780685e-001 5.458052e-001 2.374657e-001 -9.285319e-002 -7.919508e-001 3.817036e-001 1.581604e+000 7.888971e-001 -2.214195e-001 -1.249265e+000 3.635737e-001 4.699719e-001 -5.228432e-001 
<VARIANCE> 39
3.700439e-001 6.254056e-001 6.037184e-001 8.101619e-001 7.520408e-001 8.127299e-001 9.244534e-001 9.394105e-001 9.575103e-001 1.057082e+000 1.225571e+000 1.055429e+000 3.189242e-001 7.770543e-001 1.148239e+000 1.150105e+000 1.356870e+000 1.509711e+000 1.606092e+000 1.345108e+000 1.404854e+000 1.373268e+000 1.328100e+000 1.424370e+000 1.409395e+000 1.053223e+000 8.384977e-001 1.055788e+000 1.303451e+000 1.476116e+000 1.130734e+000 1.208540e+000 1.080329e+000 1.181343e+000 1.291206e+000 1.157731e+000 1.467774e+000 1.336404e+000 9.990180e-001 
<GCONST> 7.335821e+001
<MIXTURE> 5 1.425602e-002
<MEAN> 39
-1.595610e+000 -3.061542e-001 -1.199424e-001 3.020864e-001 -9.201641e-002 1.136333e-002 4.911608e-001 -1.001265e-001 5.312670e-001 -1.611367e-002 2.407743e-001 -1.229575e-002 3.949581e-001 1.493472e+000 7.131478e-001 1.089902e+000 2.216398e-001 -2.017216e-001 -3.276665e-001 -3.986133e-001 -3.196703e-001 -5.269176e-001 -3.246900e-001 -3.783619e-001 -1.629049e-001 -9.529427e-002 1.419609e+000 7.201682e-001 4.993768e-001 -3.122145e-001 -2.564166e-001 -4.104922e-001 -6.993936e-001 -1.439590e-001 -6.432888e-001 -1.632271e-001 -2.779043e-001 -3.351505e-002 2.647767e-001 
<VARIANCE> 39
3.502687e-001 6.313373e-001 5.989488e-001 5.492133e-001 6.749763e-001 6.647739e-001 6.912365e-001 7.708835e-001 6.231409e-001 6.535368e-001 7.560566e-001 6.853591e-001 3.004551e-001 4.493152e-001 7.455538e-001 8.116759e-001 8.041935e-001 6.374772e-001 7.507854e-001 7.040494e-001 8.412683e-001 6.610809e-001 7.593702e-001 8.761390e-001 7.381691e-001 3.635219e-001 5.917334e-001 7.894369e-001 8.396257e-001 7.898669e-001 7.789114e-001 8.637424e-001 7.445432e-001 9.998229e-001 8.409234e-001 9.732676e-001 9.900307e-001 9.668675e-001 4.701145e-001 
<GCONST> 5.708737e+001
<MIXTURE> 6 1.071167e-002
<MEAN> 39
1.700920e-001 -1.338672e-001 1.722919e+000 3.824400e-001 -1.303834e+000 -3.503859e-001 -5.208699e-001 2.146453e-001 -9.745246e-001 -1.022021e+000 5.129333e-001 -1.090930e-001 7.124857e-001 1.198931e-001 -1.174028e-001 -1.450769e-001 1.323971e-002 -9.159163e-002 -4.399635e-002 4.804476e-002 9.706360e-002 -5.958075e-002 2.445366e-001 1.043050e-001 -3.391129e-003 -1.260522e-001 -1.695585e-001 2.704373e-001 -9.885137e-001 1.614792e-001 9.755580e-001 -1.637349e-001 3.368523e-001 -1.388121e-002 7.008345e-001 5.809820e-001 -4.285902e-001 1.304281e-001 -4.945674e-001 
<VARIANCE> 39
2.749868e-001 7.385629e-001 4.540228e-001 4.045754e-001 4.819645e-001 7.747308e-001 6.674093e-001 1.022693e+000 8.191655e-001 6.959197e-001 9.173523e-001 1.080487e+000 2.764946e-001 2.040978e-001 6.795403e-001 5.541515e-001 5.433829e-001 6.470246e-001 7.625095e-001 7.001815e-001 7.395603e-001 7.816835e-001 8.399569e-001 6.978956e-001 8.553290e-001 4.098987e-001 3.779952e-001 5.596354e-001 6.292398e-001 5.344601e-001 6.342174e-001 7.124948e-001 7.794573e-001 8.359236e-001 7.572664e-001 7.179261e-001 8.514055e-001 9.161429e-001 3.716862e-001 
<GCONST> 5.308287e+001
<MIXTURE> 7 9.025704e-003
<MEAN> 39
-8.886160e-002 9.675671e-001 1.473778e+000 -4.593952e-001 -2.946447e-001 4.580170e-001 -7.091295e-001 -4.228616e-001 -5.379054e-001 4.993719e-002 -3.415796e-001 2.073845e-001 1.371847e-001 3.359015e-002 -7.086310e-002 1.452390e-001 -8.450735e-002 -1.373021e-001 3.335283e-002 -6.974872e-003 -4.169044e-002 -6.895345e-002 3.612386e-002 -6.190246e-002 1.318227e-001 -2.826308e-002 1.008018e-001 -5.193301e-001 -7.815934e-001 5.291013e-001 -1.282537e-001 -4.909590e-001 5.558380e-001 2.026458e-001 1.546645e-001 3.405199e-002 1.828028e-001 -1.699210e-001 -1.264816e-001 
<VARIANCE> 39
3.986307e-001 5.576897e-001 5.296129e-001 5.397875e-001 7.253337e-001 9.157975e-001 7.330038e-001 8.253827e-001 7.804466e-001 1.155379e+000 9.342139e-001 1.052124e+000 4.241433e-001 2.330220e-001 6.122096e-001 4.635129e-001 5.301627e-001 7.693401e-001 6.539839e-001 6.910285e-001 6.088561e-001 7.026129e-001 7.003905e-001 6.743038e-001 7.641255e-001 4.516346e-001 3.480041e-001 5.531977e-001 5.688916e-001 5.637291e-001 6.937240e-001 7.201889e-001 6.993061e-001 7.756475e-001 8.003241e-001 8.404116e-001 8.054729e-001 8.398200e-001 4.286466e-001 
<GCONST> 5.423579e+001
<MIXTURE> 8 8.791731e-003
<MEAN> 39
9.819296e-001 1.284787e+000 -6.699997e-002 -8.068630e-001 -7.582914e-001 2.094683e-002 -1.468413e-001 -1.498384e-003 -3.630261e-001 -4.523431e-001 -3.714567e-001 -4.288700e-001 1.620782e-001 1.206637e+000 7.722608e-001 5.821319e-001 -1.234525e+000 -1.198321e+000 2.643889e-003 -5.057877e-001 4.051889e-002 -4.437910e-001 -1.341690e-001 -4.863662e-001 -3.742097e-001 6.997492e-001 -1.164381e+000 -1.492516e+000 -5.102959e-001 3.696190e-001 7.178608e-001 2.210850e-001 -2.588083e-003 -2.013524e-001 2.778429e-001 5.899068e-001 5.321324e-001 4.684073e-001 -7.503890e-002 
<VARIANCE> 39
2.473002e-001 4.983623e-001 5.905197e-001 6.273386e-001 8.403552e-001 8.176201e-001 8.418734e-001 1.063810e+000 9.937363e-001 1.030853e+000 8.377858e-001 9.928593e-001 3.295846e-001 6.026222e-001 1.236351e+000 9.922490e-001 9.564918e-001 1.068908e+000 1.143861e+000 1.182534e+000 1.715725e+000 1.318813e+000 1.295584e+000 1.308797e+000 1.390349e+000 5.691275e-001 5.675461e-001 7.113115e-001 9.582871e-001 9.652447e-001 9.595049e-001 9.715790e-001 1.011012e+000 1.066927e+000 1.132722e+000 1.048995e+000 9.138212e-001 1.119220e+000 5.553938e-001 
<GCONST> 6.659515e+001
<MIXTURE> 9 1.352769e-002
<MEAN> 39
-1.174667e+000 -8.258685e-001 -6.269364e-001 4.306584e-001 9.616555e-001 -3.799919e-001 -6.582762e-001 -2.004912e-001 6.128017e-001 5.195520e-001 7.322633e-002 -1.505644e-001 3.313475e-001 1.161728e+000 5.336981e-001 1.152833e-001 -4.051957e-001 -1.324281e-001 6.153143e-001 -7.907554e-002 -7.043418e-001 -5.393732e-001 -1.312319e-001 2.773635e-001 2.741941e-002 -2.381337e-002 1.235308e+000 1.053085e+000 3.688858e-001 -8.121538e-001 -9.041737e-001 4.920877e-001 5.365551e-001 -1.475285e-001 -7.977100e-001 -5.879960e-001 -7.320105e-002 2.163171e-001 -6.012547e-002 
<VARIANCE> 39
4.853231e-001 6.600391e-001 5.299397e-001 5.639624e-001 6.447079e-001 6.790143e-001 6.819022e-001 1.056832e+000 9.117651e-001 8.240356e-001 9.773805e-001 8.485778e-001 2.793848e-001 1.178496e+000 1.074698e+000 1.088561e+000 9.307957e-001 9.744740e-001 1.009748e+000 1.054422e+000 1.008269e+000 1.039296e+000 9.797062e-001 1.005928e+000 9.099500e-001 6.026485e-001 8.267641e-001 9.487666e-001 1.040377e+000 9.118788e-001 9.760654e-001 1.069378e+000 9.895421e-001 1.436531e+000 1.093023e+000 9.683865e-001 1.361859e+000 1.208812e+000 1.156409e+000 
<GCONST> 6.694659e+001
<MIXTURE> 10 8.232459e-003
<MEAN> 39
4.520534e-001 -4.250052e-002 2.894634e-001 7.018245e-001 -2.439821e-001 -1.117388e+000 -8.950970e-001 -3.701295e-001 2.801102e-001 -7.107099e-001 -3.544922e-001 2.820994e-001 4.202074e-001 6.363320e-001 -1.689547e-001 -1.613541e-001 -3.211545e-001 -1.473074e-001 -1.586112e-001 -4.977641e-001 2.046216e-002 -3.857663e-002 1.484691e-001 -9.236982e-002 1.352170e-001 3.579466e-002 -8.758339e-001 -1.459403e-001 -7.631092e-002 -2.804326e-001 2.614779e-001 7.880087e-001 7.194299e-001 4.345372e-001 -1.057167e-002 5.538155e-001 3.127097e-001 -2.141000e-001 -3.311930e-001 
<VARIANCE> 39
3.676543e-001 6.499538e-001 5.634289e-001 4.622289e-001 6.525408e-001 6.556542e-001 9.658602e-001 8.096228e-001 7.841251e-001 7.155692e-001 9.133354e-001 8.494791e-001 3.830005e-001 7.968867e-001 8.666601e-001 6.892030e-001 5.852803e-001 7.073479e-001 7.725442e-001 9.056948e-001 8.685132e-001 8.571248e-001 9.367275e-001 8.462892e-001 8.198867e-001 4.203487e-001 6.905086e-001 8.918090e-001 6.591994e-001 6.718987e-001 7.094529e-001 6.947753e-001 9.019033e-001 7.958334e-001 8.954390e-001 7.127022e-001 8.635930e-001 8.044397e-001 4.050296e-001 
<GCONST> 5.838455e+001
<MIXTURE> 11 4.449619e-002
<MEAN> 39
6.020045e-001 4.338966e-001 5.633659e-001 -4.407176e-001 -5.513948e-001 -1.011531e-001 -4.613318e-001 -2.678685e-001 -3.635524e-001 1.189721e-001 1.241023e-002 -7.140249e-003 2.561609e-001 3.180440e-002 1.279515e-002 -3.795214e-002 -2.935985e-002 6.969766e-003 7.821538e-002 6.476689e-002 8.247097e-002 8.351615e-002 1.739391e-002 -1.228613e-002 9.329903e-003 -1.716106e-001 -4.652714e-002 1.927673e-002 -8.980558e-002 1.116898e-001 1.301152e-001 2.272050e-002 1.091888e-001 6.463020e-002 4.635408e-002 -4.252873e-002 -5.626791e-002 -3.699374e-002 -1.055072e-001 
<VARIANCE> 39
4.139931e-001 8.063318e-001 7.209736e-001 8.097860e-001 7.322885e-001 8.492158e-001 8.027110e-001 9.032942e-001 7.991846e-001 9.565436e-001 8.024089e-001 8.647565e-001 3.773613e-001 6.513368e-002 2.123476e-001 2.142352e-001 2.288106e-001 2.987491e-001 3.000738e-001 3.419946e-001 3.698391e-001 3.865282e-001 3.888112e-001 3.827141e-001 4.353583e-001 1.097525e-001 7.845848e-002 1.979778e-001 2.204233e-001 2.396899e-001 3.201371e-001 2.994821e-001 3.341885e-001 3.716103e-001 3.758503e-001 3.833824e-001 3.704755e-001 4.004553e-001 9.495329e-002 
<GCONST> 3.222827e+001
<MIXTURE> 12 3.567720e-002
<MEAN> 39
5.645943e-001 -1.333320e+000 -8.697988e-001 -7.286548e-001 4.366066e-001 4.426029e-001 2.139242e-001 1.285884e-002 3.385840e-001 4.200070e-002 -3.065023e-001 -3.688442e-001 1.170336e+000 1.109376e-002 1.177752e-001 4.315481e-002 1.981813e-001 1.568652e-001 -7.504140e-002 -6.540692e-002 1.013374e-001 1.252858e-002 -1.114392e-001 -5.273374e-002 -4.080675e-003 -1.986722e-001 1.300251e-002 5.309171e-001 2.028233e-001 9.833017e-002 -1.963165e-001 -2.860923e-001 -1.271485e-001 5.907437e-002 6.907966e-003 9.314241e-002 3.608358e-002 7.364958e-002 -3.056144e-001 
<VARIANCE> 39
2.174229e-001 3.089753e-001 3.161734e-001 6.429253e-001 6.580068e-001 8.780207e-001 8.478852e-001 1.030181e+000 7.604540e-001 9.416475e-001 9.539024e-001 8.859774e-001 1.035638e-001 7.747451e-002 3.039746e-001 2.214711e-001 2.213452e-001 4.016743e-001 4.245054e-001 4.240569e-001 4.429153e-001 4.062554e-001 4.488620e-001 4.540801e-001 4.667595e-001 9.903677e-002 9.625326e-002 2.887632e-001 2.429460e-001 2.631313e-001 3.457068e-001 3.711897e-001 4.331199e-001 4.401423e-001 3.941323e-001 4.215315e-001 4.410460e-001 4.557776e-001 1.159734e-001 
<GCONST> 3.256187e+001
<MIXTURE> 13 1.093723e-002
<MEAN> 39
6.652455e-001 3.827131e-001 -1.866948e-001 -3.327333e-001 3.170944e-001 -3.546649e-001 -1.064115e+000 -9.496881e-001 -2.404771e-002 5.125307e-001 -1.119458e-001 -3.936833e-001 6.786221e-001 1.567644e+000 -1.720659e-001 -1.373403e-001 -1.516353e+000 -5.041849e-001 3.903833e-001 -8.429190e-001 -5.783612e-001 -5.225690e-001 5.240565e-001 1.509900e-001 2.116830e-002 8.469424e-001 -1.091261e+000 -5.432553e-001 -3.219475e-001 1.276514e-002 -2.176207e-001 2.978058e-001 8.825344e-001 9.015924e-001 9.460538e-002 -3.314123e-001 1.026705e-001 5.239494e-001 -3.385633e-001 
<VARIANCE> 39
2.458170e-001 5.075857e-001 3.855995e-001 5.019026e-001 5.959739e-001 8.315867e-001 8.341408e-001 8.287592e-001 9.450796e-001 7.245451e-001 9.288305e-001 8.637541e-001 1.925004e-001 1.112923e+000 1.450106e+000 1.060635e+000 8.790248e-001 1.267669e+000 1.505819e+000 1.255203e+000 1.836803e+000 1.649961e+000 1.397352e+000 1.626340e+000 1.663103e+000 4.924043e-001 6.861070e-001 8.232748e-001 6.802534e-001 9.342816e-001 8.641484e-001 8.925649e-001 1.014341e+000 9.837180e-001 1.009959e+000 8.298596e-001 1.118824e+000 9.501085e-001 5.389659e-001 
<GCONST> 6.562823e+001
<MIXTURE> 14 5.775148e-003
<MEAN> 39
2.958969e-001 -5.335608e-001 1.175508e+000 -2.767260e-002 -1.136013e+000 -1.060019e+000 -1.466940e-001 6.299182e-001 -9.784462e-001 4.479474e-003 -1.894105e-001 7.352000e-001 9.056901e-001 -3.473837e-001 4.879009e-001 1.078709e+000 -9.432556e-002 -6.190901e-001 3.589928e-001 5.465227e-001 -4.088356e-001 -8.377209e-001 1.237651e-001 2.874628e-001 1.573725e-001 -1.311149e-001 3.444722e-002 6.777697e-001 -7.010602e-001 1.755048e-001 9.801878e-001 8.219754e-001 -2.237376e-001 -6.648740e-001 6.363009e-001 1.743293e-001 -5.424222e-002 -7.707821e-001 -7.599884e-001 
<VARIANCE> 39
2.579569e-001 4.871338e-001 6.002986e-001 6.075439e-001 5.758431e-001 7.425756e-001 8.976005e-001 9.310526e-001 9.312159e-001 1.032512e+000 8.170906e-001 1.085546e+000 2.762854e-001 3.159775e-001 7.933311e-001 7.780941e-001 8.066048e-001 1.002539e+000 9.196993e-001 1.115661e+000 1.023538e+000 9.382939e-001 1.332878e+000 9.856284e-001 1.101469e+000 6.357399e-001 4.319714e-001 6.854881e-001 8.344421e-001 8.657204e-001 7.826220e-001 9.255648e-001 1.058065e+000 1.136972e+000 1.034106e+000 1.007547e+000 9.527812e-001 1.028788e+000 5.687153e-001 
<GCONST> 6.195164e+001
<MIXTURE> 15 2.388232e-002
<MEAN> 39
-1.343127e-001 2.716573e-001 5.031588e-002 7.336355e-001 7.719097e-001 7.573470e-001 6.529763e-001 4.363493e-001 3.344085e-001 1.352218e-001 2.595194e-001 7.060640e-002 -1.112103e+000 -1.049152e+000 -8.769806e-001 -9.519632e-001 -1.861049e-001 -8.635244e-002 -2.946385e-002 3.363751e-001 2.295752e-001 4.172872e-001 8.063920e-002 3.723482e-001 2.894353e-001 -3.523763e-001 2.673831e-001 -2.352594e-001 -2.333323e-001 -1.077902e+000 -1.011938e+000 -9.901481e-001 -8.946301e-001 -5.923219e-001 -4.733652e-001 -1.101862e-001 -3.704022e-001 -9.162366e-002 1.639008e+000 
<VARIANCE> 39
2.863983e-001 5.304134e-001 5.343650e-001 4.767884e-001 5.845387e-001 5.939318e-001 5.877820e-001 7.338414e-001 7.178238e-001 6.950811e-001 7.646938e-001 8.163403e-001 3.499138e-001 5.555395e-001 7.152210e-001 7.856083e-001 9.236257e-001 9.949299e-001 1.012970e+000 9.171817e-001 9.222105e-001 9.299529e-001 1.042594e+000 1.010750e+000 1.008439e+000 9.668882e-001 6.987947e-001 9.334203e-001 9.295731e-001 9.042439e-001 1.028909e+000 8.206848e-001 8.349725e-001 9.877653e-001 9.961671e-001 1.021998e+000 9.936933e-001 1.020627e+000 1.325887e+000 
<GCONST> 6.221255e+001
<MIXTURE> 16 2.034312e-002
<MEAN> 39
1.010995e+000 1.383173e+000 5.331884e-001 -8.470157e-001 -1.178660e+000 -3.298811e-001 -5.973350e-001 1.918554e-001 7.316382e-003 -8.497086e-002 -4.094257e-001 -4.287428e-001 -1.612964e-001 -8.386099e-002 -2.061531e-002 6.609854e-002 4.342963e-001 3.365978e-001 -8.397557e-002 -3.792732e-002 3.713274e-004 1.878449e-001 2.274545e-001 1.829122e-001 1.264330e-001 -4.560055e-001 -2.659240e-001 -5.511705e-001 -3.658310e-001 3.205207e-001 6.417501e-001 5.220395e-001 4.032426e-001 -2.219306e-001 -3.975115e-001 -2.313557e-001 2.472363e-001 4.119495e-001 2.608031e-002 
<VARIANCE> 39
1.378815e-001 3.561909e-001 5.523220e-001 5.689052e-001 5.863268e-001 7.455383e-001 7.527130e-001 8.420401e-001 8.698601e-001 9.737230e-001 7.644249e-001 1.003865e+000 2.321297e-001 1.634059e-001 4.081550e-001 5.477344e-001 7.236054e-001 7.002852e-001 6.914498e-001 7.988212e-001 7.292086e-001 7.429516e-001 7.843253e-001 7.133641e-001 8.110817e-001 2.459969e-001 1.997203e-001 3.731722e-001 4.529670e-001 5.810355e-001 5.965648e-001 5.237584e-001 5.898802e-001 7.072292e-001 7.016782e-001 7.141404e-001 7.105610e-001 8.275153e-001 2.591625e-001 
<GCONST> 4.840145e+001
<MIXTURE> 17 3.170628e-002
<MEAN> 39
-1.715260e+000 -1.486473e-001 -2.315851e-001 3.280619e-001 1.356875e-001 -1.047335e-001 3.054547e-001 8.301049e-004 3.562667e-001 -7.664321e-002 2.370352e-001 7.579333e-002 3.474823e-001 -5.124939e-003 -1.740163e-001 7.491926e-002 -1.775802e-002 -8.807672e-002 7.280338e-003 -2.324141e-002 -2.478703e-002 3.523194e-002 -2.766944e-002 -2.463314e-002 -3.453628e-003 5.024553e-002 8.506640e-001 1.883397e-001 2.591036e-001 1.302258e-001 8.088866e-002 2.133371e-002 -2.759323e-002 -1.353060e-002 -6.824025e-002 -1.527626e-002 -8.275124e-002 -3.775125e-002 -4.629230e-001 
<VARIANCE> 39
3.507349e-001 8.210236e-001 6.041238e-001 5.005980e-001 6.004114e-001 5.639308e-001 6.482890e-001 6.672827e-001 5.969945e-001 5.996191e-001 6.894049e-001 6.217830e-001 5.555144e-001 2.498171e-001 3.826981e-001 3.073937e-001 2.513232e-001 3.398338e-001 3.699714e-001 3.855319e-001 3.948508e-001 4.144236e-001 4.358111e-001 4.564339e-001 4.651731e-001 3.016115e-001 4.154172e-001 5.726336e-001 5.377949e-001 3.799203e-001 4.525254e-001 5.283055e-001 5.043911e-001 5.216129e-001 5.431467e-001 5.509546e-001 5.917957e-001 6.028213e-001 3.747400e-001 
<GCONST> 4.252029e+001
<MIXTURE> 18 1.171442e-002
<MEAN> 39
1.321412e-001 -5.594940e-002 1.941267e+000 7.435318e-001 -9.961642e-001 -8.280678e-001 -6.549883e-001 -5.903142e-002 -5.870614e-001 -1.346271e+000 6.020218e-002 4.189018e-002 7.952571e-001 8.778549e-001 -1.038415e+000 6.875064e-001 -1.724974e-001 -1.334134e+000 -1.015972e+000 -1.047231e+000 2.568202e-001 -6.200786e-001 -6.531183e-001 5.469793e-001 1.309569e-001 1.181640e+000 -6.169990e-001 -8.225220e-002 -1.789719e+000 -5.656439e-001 7.303544e-001 4.249396e-001 4.404712e-001 1.808874e-001 5.342861e-001 1.203564e+000 1.283208e-001 1.383905e-002 -7.587339e-001 
<VARIANCE> 39
2.271347e-001 7.080784e-001 4.994333e-001 4.191362e-001 5.517000e-001 6.974117e-001 7.758902e-001 8.250797e-001 8.337054e-001 6.456771e-001 8.465309e-001 9.162410e-001 2.287543e-001 8.362859e-001 1.007221e+000 1.259282e+000 8.872081e-001 8.578735e-001 1.412742e+000 1.264880e+000 1.388338e+000 1.537930e+000 1.324976e+000 1.238378e+000 1.416652e+000 7.050696e-001 6.988487e-001 1.099514e+000 8.582732e-001 9.032537e-001 9.820968e-001 1.123199e+000 1.064286e+000 9.764738e-001 1.044311e+000 8.495045e-001 1.018777e+000 1.206695e+000 6.869177e-001 
<GCONST> 6.548513e+001
<MIXTURE> 19 2.115114e-002
<MEAN> 39
-4.252006e-001 1.795513e-001 -2.388118e-001 5.740198e-001 1.378760e-001 3.053447e-001 4.139209e-001 3.407267e-001 2.700537e-001 1.454340e-002 4.086651e-001 3.019314e-001 -1.456943e+000 3.495673e-001 -4.771123e-002 5.497291e-001 -2.795814e-001 -2.629924e-001 -2.776185e-001 -5.092170e-001 -4.571876e-001 -3.293716e-001 -2.076146e-001 -4.118136e-001 -3.799835e-001 1.222520e+000 6.385444e-001 -1.249133e-001 5.860096e-001 -5.176560e-001 -2.308189e-001 -3.305334e-001 -5.813882e-001 -3.755812e-001 -4.301927e-001 -1.464513e-001 -3.840589e-001 -3.000401e-001 1.747579e+000 
<VARIANCE> 39
2.688010e-001 4.318159e-001 5.313227e-001 4.158874e-001 5.744597e-001 5.611154e-001 5.971285e-001 7.551795e-001 6.745095e-001 6.397488e-001 7.156660e-001 7.650497e-001 2.572996e-001 7.380754e-001 1.418035e+000 2.086728e+000 1.140405e+000 1.180199e+000 1.201844e+000 1.079980e+000 1.177194e+000 1.199318e+000 1.142727e+000 1.122969e+000 1.118411e+000 1.145220e+000 7.304408e-001 1.273644e+000 1.390972e+000 1.132004e+000 1.292658e+000 1.206255e+000 1.060336e+000 1.190216e+000 1.158577e+000 1.214686e+000 1.207589e+000 1.147163e+000 9.417389e-001 
<GCONST> 6.713213e+001
<MIXTURE> 20 7.355565e-003
<MEAN> 39
3.001716e-001 -1.348340e+000 -7.088044e-001 -6.087396e-001 1.973896e-001 -1.360960e-001 3.875520e-001 7.215339e-001 2.971134e-001 -4.592686e-001 -1.042929e+000 8.294965e-002 1.224889e+000 2.263675e-001 -1.044752e+000 -5.310519e-001 -2.475416e-001 8.909847e-001 6.980897e-001 1.527037e-001 3.494543e-001 -1.112661e-001 -3.325293e-001 -4.182333e-001 9.917742e-002 6.206661e-001 -5.136487e-001 1.180815e+000 5.500071e-001 9.285416e-001 -6.344077e-002 2.097407e-001 -3.715619e-001 -7.752258e-001 -2.081668e-001 3.679578e-001 1.106687e+000 -1.188184e-001 -1.319631e+000 
<VARIANCE> 39
3.796289e-001 4.850933e-001 4.229620e-001 4.093381e-001 8.499693e-001 7.435792e-001 7.996428e-001 9.915521e-001 9.515318e-001 9.614125e-001 6.593184e-001 8.449014e-001 2.412084e-001 5.573058e-001 7.879633e-001 7.908074e-001 6.240498e-001 1.157386e+000 9.754046e-001 1.303866e+000 9.894686e-001 9.204600e-001 1.169775e+000 9.912189e-001 1.168537e+000 5.484562e-001 9.344441e-001 9.030328e-001 7.945566e-001 7.291229e-001 1.099450e+000 9.843895e-001 9.798137e-001 1.253878e+000 1.168123e+000 1.159394e+000 9.031474e-001 1.059216e+000 8.150324e-001 
<GCONST> 6.353514e+001
<MIXTURE> 21 2.077008e-002
<MEAN> 39
-2.009100e+000 7.234632e-001 -7.161785e-001 8.191834e-001 -9.034106e-002 2.152003e-001 5.392579e-001 -1.014854e-001 4.515901e-001 -4.337174e-002 4.960241e-001 3.394519e-002 -1.433436e-002 -5.859150e-001 -2.056390e-001 -2.553475e-001 -2.775489e-001 -3.819278e-001 -1.785643e-001 -7.905709e-002 -1.181787e-001 6.206094e-002 -1.784572e-002 4.650692e-002 6.859207e-002 6.018990e-001 1.985123e+000 -4.842703e-001 8.775659e-001 -6.082991e-001 6.840840e-002 -4.124325e-001 -4.726233e-001 -1.591844e-001 -3.125531e-001 6.117974e-002 -5.734461e-001 -1.128249e-001 1.910968e-001 
<VARIANCE> 39
4.640352e-001 5.081161e-001 4.488814e-001 2.718724e-001 5.153973e-001 5.768563e-001 5.621493e-001 5.812626e-001 5.168546e-001 5.336907e-001 5.733938e-001 6.377451e-001 2.663231e-001 1.428299e+000 8.237329e-001 8.576596e-001 4.303122e-001 6.230479e-001 6.424366e-001 6.023694e-001 6.082580e-001 6.136308e-001 6.954033e-001 6.123117e-001 6.281877e-001 8.113806e-001 9.098059e-001 1.024888e+000 1.037976e+000 6.673154e-001 8.588335e-001 8.774509e-001 9.126818e-001 8.942066e-001 9.797737e-001 1.100505e+000 9.063420e-001 9.577400e-001 9.444199e-001 
<GCONST> 5.636387e+001
<MIXTURE> 22 9.749980e-003
<MEAN> 39
-3.661075e-002 -2.294330e-001 1.539264e+000 -7.760932e-001 -1.501884e+000 -7.939305e-001 3.811992e-001 -5.628067e-001 -7.379881e-001 6.981735e-001 -5.427252e-002 1.092152e-001 1.097726e+000 1.523305e-001 -6.455290e-001 -6.444185e-001 -6.241965e-002 2.624673e-002 -4.887188e-001 5.830315e-001 6.345453e-001 3.618102e-001 4.281366e-004 1.420807e-001 8.360371e-002 2.257999e-001 1.065504e-001 3.061669e-001 -6.986808e-001 7.269224e-001 8.585466e-001 1.999868e-001 -3.684325e-001 4.283363e-001 3.480634e-001 -6.857119e-001 -1.732247e-001 1.990532e-003 -6.594255e-001 
<VARIANCE> 39
3.613975e-001 4.703922e-001 4.804321e-001 4.047995e-001 4.600319e-001 7.276354e-001 9.164045e-001 9.499028e-001 8.031689e-001 7.462589e-001 1.084350e+000 1.068717e+000 1.542063e-001 2.255276e-001 7.467979e-001 7.308570e-001 4.701383e-001 6.537939e-001 8.824197e-001 1.024275e+000 1.145064e+000 8.470355e-001 1.064781e+000 8.956293e-001 9.185573e-001 3.342114e-001 3.625496e-001 5.583790e-001 6.418462e-001 5.427970e-001 7.302000e-001 8.249696e-001 1.207835e+000 8.734966e-001 9.060953e-001 7.278835e-001 9.418574e-001 9.974279e-001 3.863053e-001 
<GCONST> 5.563142e+001
<MIXTURE> 23 2.096751e-002
<MEAN> 39
7.867962e-001 4.006679e-001 6.499702e-001 7.611845e-001 2.290443e-001 -1.244441e-001 -2.190523e-001 -6.334790e-001 -3.800540e-001 7.460365e-001 -8.324096e-002 -7.318953e-001 -1.671240e-001 7.190508e-003 4.231617e-001 2.660750e-001 6.204784e-001 2.063623e-001 2.178507e-001 2.196098e-001 -3.958038e-001 -3.490221e-002 -1.677977e-002 5.319912e-002 -5.522576e-002 -7.142100e-001 -3.581094e-001 -1.355888e-001 -3.489278e-001 -6.037630e-001 -8.301909e-002 7.272897e-002 1.492673e-001 7.358164e-001 2.215989e-001 -6.302361e-001 -9.451365e-002 4.654991e-001 2.809447e-001 
<VARIANCE> 39
1.420078e-001 5.134973e-001 4.261263e-001 4.277827e-001 6.454496e-001 5.743145e-001 7.888246e-001 7.132226e-001 8.794355e-001 6.942613e-001 9.892518e-001 1.023509e+000 2.300065e-001 1.589790e-001 5.031901e-001 7.194015e-001 5.538581e-001 6.982555e-001 7.506963e-001 8.002768e-001 1.024730e+000 8.395254e-001 9.765477e-001 9.299630e-001 9.925234e-001 2.830032e-001 2.851153e-001 5.817321e-001 8.996306e-001 6.276306e-001 7.990515e-001 7.590840e-001 8.771699e-001 7.781544e-001 9.191555e-001 7.831468e-001 1.005111e+000 9.744991e-001 3.671042e-001 
<GCONST> 5.340558e+001
<MIXTURE> 24 5.353839e-003
<MEAN> 39
9.842408e-001 -1.202875e-001 -5.203431e-001 -1.068835e+000 6.314890e-002 6.846017e-001 -9.512209e-001 -9.642406e-001 -9.719376e-001 9.500965e-001 5.988364e-001 4.228173e-001 6.627114e-001 -3.033162e-001 -7.710689e-001 3.977878e-001 1.153062e+000 7.938798e-001 -8.933954e-001 -7.198879e-001 -1.390002e-001 7.965546e-001 7.491150e-001 -1.749673e-001 -5.008531e-001 7.454540e-002 -6.207322e-001 4.453579e-001 6.512964e-001 8.756517e-001 -2.509647e-001 -5.998085e-001 8.062056e-001 1.049884e+000 8.763780e-001 -1.107808e+000 -8.229278e-001 -4.528491e-001 -7.471527e-001 
<VARIANCE> 39
2.720165e-001 5.685014e-001 6.097273e-001 7.700485e-001 9.068490e-001 7.439011e-001 9.046770e-001 8.762513e-001 9.446242e-001 1.081294e+000 1.143582e+000 1.113542e+000 2.598289e-001 3.084577e-001 9.405101e-001 7.559031e-001 1.437000e+000 1.165839e+000 1.158104e+000 1.170244e+000 1.189935e+000 1.238027e+000 1.218964e+000 1.338494e+000 1.350518e+000 8.368221e-001 5.435447e-001 9.016631e-001 1.011444e+000 1.180799e+000 1.330273e+000 1.237511e+000 1.149844e+000 1.170012e+000 1.170990e+000 1.071160e+000 1.380476e+000 1.245083e+000 7.423779e-001 
<GCONST> 6.837560e+001
<MIXTURE> 25 1.442404e-002
<MEAN> 39
-1.844230e+000 -8.082802e-001 1.866370e-001 7.916937e-001 1.077852e-001 -7.445286e-001 2.479252e-001 4.099430e-001 5.423572e-001 -4.263215e-001 2.099520e-001 1.411441e-001 5.801357e-001 -1.346460e-001 -2.900761e-001 -1.503478e-001 -4.424917e-002 -6.728475e-002 -3.862913e-001 -2.810521e-001 3.683176e-002 2.806112e-001 2.834468e-002 -1.143145e-001 -5.372720e-002 4.529760e-001 1.949605e+000 7.607150e-001 -2.782581e-001 -6.084293e-001 1.108624e-001 6.721904e-001 -4.105086e-001 -6.056778e-001 -3.675289e-001 3.928927e-001 -1.757362e-001 -2.108869e-001 -5.997697e-001 
<VARIANCE> 39
5.144767e-001 5.844711e-001 6.073365e-001 5.623722e-001 7.656353e-001 7.149600e-001 9.678908e-001 8.201829e-001 8.928482e-001 6.977698e-001 8.385403e-001 7.678731e-001 3.665029e-001 2.146794e+000 8.429048e-001 8.570731e-001 5.954268e-001 7.789993e-001 8.142109e-001 9.123683e-001 8.452898e-001 7.425318e-001 8.150971e-001 8.005855e-001 8.492432e-001 7.794536e-001 1.040122e+000 9.431233e-001 1.005757e+000 9.530783e-001 1.083119e+000 1.120969e+000 1.170877e+000 9.886565e-001 1.152752e+000 1.063012e+000 1.156407e+000 1.145701e+000 1.178662e+000 
<GCONST> 6.564667e+001
<MIXTURE> 26 6.203528e-003
<MEAN> 39
4.126045e-001 -4.123274e-001 4.394062e-001 -2.491391e-001 -9.379707e-001 -1.382894e+000 -5.660043e-001 2.951663e-001 -3.449924e-002 -2.276952e-001 -4.030226e-001 5.413219e-001 1.007709e+000 1.020533e+000 -1.361552e+000 -3.671454e-001 -1.235546e+000 -1.769154e-001 -4.487296e-001 -2.783114e-001 9.650069e-001 1.026899e-001 4.282874e-001 -8.013152e-001 3.391674e-001 1.271727e+000 -9.417655e-001 1.438308e-001 -6.445925e-001 3.108623e-001 1.047127e+000 1.502743e+000 7.624756e-001 -8.509231e-002 1.897701e-001 2.842227e-001 3.143511e-001 -5.821975e-001 -9.178042e-001 
<VARIANCE> 39
2.676916e-001 5.242593e-001 1.004463e+000 4.296600e-001 7.425037e-001 6.210954e-001 1.036595e+000 8.708364e-001 9.835622e-001 8.046947e-001 7.821729e-001 9.811185e-001 1.956687e-001 1.178060e+000 9.072898e-001 1.260687e+000 6.628451e-001 1.486415e+000 1.278637e+000 1.518845e+000 1.466532e+000 1.569590e+000 1.634939e+000 1.468383e+000 1.414786e+000 7.483949e-001 1.174859e+000 1.043541e+000 1.271420e+000 8.269703e-001 1.035032e+000 9.173704e-001 1.179134e+000 1.217548e+000 1.234141e+000 1.099775e+000 1.101935e+000 1.207078e+000 7.600186e-001 
<GCONST> 6.946074e+001
<MIXTURE> 27 3.297403e-002
<MEAN> 39
-1.273723e-001 1.628283e-001 -4.630858e-001 6.547419e-001 1.061795e-001 2.266360e-001 3.273951e-001 3.077254e-001 2.825483e-001 3.328165e-002 4.655925e-001 2.799802e-001 -1.592960e+000 -6.195362e-002 2.859749e-002 3.603665e-002 -4.189258e-003 -3.118690e-002 -3.140677e-002 1.235220e-002 -4.759407e-002 -2.481619e-004 5.154454e-002 6.674908e-003 -2.581428e-002 1.154402e-002 -2.236530e-001 -2.265577e-001 3.844571e-001 -3.582138e-001 1.119231e-001 -1.403012e-001 -7.924219e-002 -2.311037e-001 -1.277277e-001 -1.386018e-001 -2.682077e-001 -1.818439e-001 1.066858e+000 
<VARIANCE> 39
2.437181e-001 3.431273e-001 3.396679e-001 2.293296e-001 4.110062e-001 4.076737e-001 4.340653e-001 5.930050e-001 5.504358e-001 5.076963e-001 5.822690e-001 6.126386e-001 1.947512e-001 1.798993e-001 3.509792e-001 3.452715e-001 2.725890e-001 3.766012e-001 4.143498e-001 4.068437e-001 4.611839e-001 4.701218e-001 5.078735e-001 4.813143e-001 5.337334e-001 2.310587e-001 5.554637e-001 7.405688e-001 7.901428e-001 5.893752e-001 6.999506e-001 7.019623e-001 7.030226e-001 7.124857e-001 7.030985e-001 7.358200e-001 7.180114e-001 7.480011e-001 5.279554e-001 
<GCONST> 4.167127e+001
<MIXTURE> 28 7.514959e-003
<MEAN> 39
9.566172e-001 -5.483761e-001 -7.418985e-001 -1.469187e+000 -6.855344e-001 7.143539e-001 6.087505e-001 -5.755382e-001 -3.987481e-002 1.992597e-001 8.200538e-001 -3.787154e-002 1.029244e+000 1.011316e+000 -1.401277e+000 -8.241215e-001 -1.524072e+000 -4.216806e-002 6.679211e-001 4.366474e-001 -3.852756e-001 1.498315e-001 3.854804e-001 3.894644e-001 -8.042985e-001 1.434762e+000 -1.347543e+000 4.261573e-002 3.253607e-001 1.471864e+000 1.161223e+000 -3.361240e-001 -1.165629e-001 5.444787e-001 2.505614e-001 -1.634229e-001 -7.843406e-001 -1.790150e-001 -1.296475e+000 
<VARIANCE> 39
2.198973e-001 5.783778e-001 4.433187e-001 5.811513e-001 6.055858e-001 8.313889e-001 7.566454e-001 8.231813e-001 8.572220e-001 8.987826e-001 8.923817e-001 1.193235e+000 2.358169e-001 1.104224e+000 9.056418e-001 9.025309e-001 1.280269e+000 1.502583e+000 1.420991e+000 1.310909e+000 1.479485e+000 1.451084e+000 1.450274e+000 1.495631e+000 1.403982e+000 7.841384e-001 9.486293e-001 1.117861e+000 9.539868e-001 1.061858e+000 9.032307e-001 1.066103e+000 9.645728e-001 1.150937e+000 1.122193e+000 1.139783e+000 1.174654e+000 1.349265e+000 9.637573e-001 
<GCONST> 6.907288e+001
<MIXTURE> 29 1.087443e-002
<MEAN> 39
9.178555e-001 5.097395e-001 -3.590397e-001 -1.153811e+000 -4.382670e-001 7.468902e-001 -4.793147e-001 -1.094347e+000 -1.307051e+000 -3.764811e-001 5.444290e-001 5.746168e-001 7.529193e-001 7.213569e-001 8.088717e-001 -4.276793e-002 -1.368422e+000 -1.318454e+000 5.605406e-001 7.948908e-001 4.541546e-001 -3.475387e-001 -8.814263e-001 -6.081142e-001 3.007577e-001 -1.735844e-001 -9.078174e-001 -3.548376e-001 4.280062e-001 8.362447e-001 9.896630e-002 -1.030017e+000 -8.600955e-002 1.105540e+000 1.437272e+000 3.356065e-001 -6.680755e-001 -8.447428e-001 -5.554247e-001 
<VARIANCE> 39
1.822905e-001 5.005081e-001 4.018820e-001 6.372140e-001 8.133737e-001 6.955215e-001 7.701895e-001 8.774734e-001 8.893406e-001 1.052070e+000 1.178613e+000 9.795909e-001 1.590762e-001 5.304123e-001 8.654162e-001 6.088213e-001 6.817080e-001 8.274022e-001 8.316962e-001 1.109877e+000 1.468464e+000 1.322589e+000 1.057295e+000 1.551899e+000 1.358454e+000 4.338199e-001 5.916708e-001 7.714534e-001 9.679599e-001 8.025317e-001 1.142522e+000 9.123669e-001 1.184215e+000 1.013335e+000 9.010124e-001 1.085140e+000 1.325936e+000 1.254311e+000 4.438566e-001 
<GCONST> 6.276165e+001
<MIXTURE> 30 1.487558e-002
<MEAN> 39
5.627844e-001 -1.059328e+000 -2.136371e-001 -5.280939e-001 -6.502409e-002 -5.353360e-001 -8.575149e-002 1.135761e+000 1.248617e-001 1.828501e-001 -1.002258e+000 2.630263e-001 1.056560e+000 8.332457e-002 7.934062e-001 3.908902e-001 4.559010e-001 1.072624e-001 -3.355368e-001 -1.827728e-001 -1.840202e-001 -8.844362e-002 2.820764e-002 1.034791e-001 1.995955e-001 -6.619850e-001 -1.481624e-001 8.098547e-001 3.797487e-001 6.434208e-001 1.276912e-001 2.204466e-001 -4.246269e-003 -9.084492e-001 -1.456079e-001 -8.039069e-002 6.487673e-001 -2.416371e-001 -7.982360e-001 
<VARIANCE> 39
2.214442e-001 4.408289e-001 5.326395e-001 4.597383e-001 8.964473e-001 8.534854e-001 9.551253e-001 6.809018e-001 9.111950e-001 9.996854e-001 6.838165e-001 9.419495e-001 1.921694e-001 1.923322e-001 5.524126e-001 6.073641e-001 4.451418e-001 1.001677e+000 9.195725e-001 9.716150e-001 8.380699e-001 7.994754e-001 9.370482e-001 8.208085e-001 1.023900e+000 2.986086e-001 2.782661e-001 5.245712e-001 5.272677e-001 4.812905e-001 7.592387e-001 6.957379e-001 7.899524e-001 6.747091e-001 7.778818e-001 8.329711e-001 7.047461e-001 8.351975e-001 2.963937e-001 
<GCONST> 5.281090e+001
<MIXTURE> 31 3.140679e-002
<MEAN> 39
4.689241e-002 3.887834e-001 1.535506e-001 7.309079e-001 4.239805e-001 2.744990e-001 2.313016e-001 5.882795e-002 -2.899684e-002 -2.434837e-001 -7.596309e-002 -4.614818e-002 -1.100269e+000 -1.407601e-001 1.513150e-002 -1.486760e-001 2.508795e-001 4.066302e-003 1.135954e-001 1.781333e-001 1.422442e-001 1.189250e-001 5.796117e-002 1.704068e-001 3.510043e-002 -4.596652e-001 -1.231832e-001 -3.874641e-001 -2.723915e-001 -4.348556e-001 -1.940557e-001 -1.395345e-001 -9.910832e-003 1.526406e-001 1.888318e-001 2.180730e-001 1.735409e-001 1.614162e-001 2.867943e-001 
<VARIANCE> 39
3.177219e-001 4.082720e-001 5.652189e-001 3.367219e-001 5.850984e-001 5.666311e-001 6.255848e-001 6.808397e-001 6.805591e-001 7.000714e-001 7.221730e-001 8.177387e-001 2.291536e-001 3.003606e-001 5.746819e-001 6.486983e-001 4.814927e-001 6.422036e-001 6.532181e-001 6.927213e-001 7.271765e-001 7.360227e-001 7.859661e-001 7.559202e-001 8.394540e-001 3.047413e-001 1.737322e-001 3.182024e-001 4.619055e-001 3.242031e-001 5.035479e-001 4.953173e-001 5.757325e-001 5.484136e-001 6.090193e-001 5.768508e-001 5.969666e-001 6.734130e-001 1.906921e-001 
<GCONST> 4.566152e+001
<MIXTURE> 32 8.225478e-003
<MEAN> 39
1.128872e+000 1.242381e+000 -7.505012e-002 -1.443082e+000 -1.278575e+000 2.705604e-001 -2.088600e-001 3.977621e-001 -3.257575e-001 -5.805827e-001 -7.008849e-001 -4.148870e-001 1.600481e-001 -1.382554e-001 -6.970040e-001 -3.814562e-001 1.883994e-001 5.929309e-001 6.273773e-001 3.782705e-001 -2.517798e-001 -2.931805e-001 8.470659e-002 4.562719e-001 6.967416e-001 -3.016808e-002 -6.320803e-001 -8.642402e-001 -1.437273e-001 1.169371e+000 1.254523e+000 1.357089e-001 2.717700e-002 -6.036337e-001 4.074818e-002 5.597517e-001 8.662901e-001 4.598706e-001 -2.487119e-001 
<VARIANCE> 39
2.003861e-001 4.955644e-001 6.331804e-001 7.251109e-001 8.176116e-001 7.925795e-001 9.640798e-001 1.291684e+000 1.048365e+000 1.031855e+000 9.534067e-001 1.278839e+000 3.221998e-001 2.706349e-001 6.102186e-001 6.554063e-001 1.518758e+000 1.158047e+000 1.001861e+000 1.077733e+000 1.164520e+000 1.319406e+000 1.085398e+000 1.038591e+000 1.287447e+000 7.814292e-001 4.284841e-001 6.939292e-001 8.207308e-001 8.328845e-001 8.342024e-001 9.096990e-001 1.044044e+000 1.239609e+000 1.212603e+000 1.067082e+000 1.026860e+000 1.288146e+000 5.606130e-001 
<GCONST> 6.483960e+001
<MIXTURE> 33 1.222753e-002
<MEAN> 39
-1.004988e+000 7.698348e-001 1.740458e-001 9.778314e-001 4.121949e-001 -4.728632e-002 5.199997e-001 -1.805234e-001 3.420604e-001 -3.270311e-001 1.483187e-001 -1.822253e-001 1.647943e-001 -2.241627e+000 8.938257e-002 -7.751311e-001 4.924318e-001 1.379443e-001 4.133155e-001 6.362101e-001 1.560329e-001 5.173278e-001 -1.762848e-001 7.098673e-001 1.832038e-002 -2.016288e-001 5.585620e-001 -1.151952e+000 -2.938841e-001 -1.183552e+000 -6.636957e-001 -2.696260e-001 -6.225612e-001 1.868353e-001 -3.074187e-001 4.571832e-001 -3.635409e-001 2.683751e-001 6.572399e-001 
<VARIANCE> 39
4.986388e-001 7.904338e-001 6.781919e-001 4.206903e-001 6.711116e-001 7.542613e-001 7.590406e-001 7.571236e-001 7.559023e-001 6.636700e-001 7.079783e-001 7.878687e-001 2.822580e-001 7.573257e-001 1.176813e+000 1.000463e+000 8.773553e-001 1.131309e+000 1.208445e+000 1.116586e+000 1.026605e+000 1.337314e+000 1.571932e+000 1.202856e+000 1.505018e+000 7.519070e-001 8.678489e-001 1.069311e+000 9.153701e-001 6.826089e-001 8.729383e-001 1.081759e+000 1.038965e+000 1.032222e+000 1.084926e+000 1.008337e+000 9.471586e-001 1.139560e+000 5.057141e-001 
<GCONST> 6.592577e+001
<MIXTURE> 34 1.595200e-002
<MEAN> 39
-3.085434e-001 8.629881e-001 7.219874e-001 6.434590e-001 2.298119e-003 -2.321514e-001 6.119462e-002 -5.264589e-001 -9.147432e-002 -3.475168e-001 -1.116016e-001 -2.166537e-001 3.173637e-001 1.876081e+000 5.659692e-001 1.247167e+000 -2.929595e-001 -8.222578e-001 -4.527673e-001 -8.193881e-001 -3.182772e-001 -8.954983e-001 -3.477205e-001 -3.338791e-001 -7.487050e-002 4.446491e-001 -2.631752e-001 -7.510058e-001 -6.530075e-001 -7.352591e-001 -2.549002e-001 -9.215279e-003 -2.207661e-001 3.182538e-001 -9.038404e-003 3.407201e-001 1.253987e-001 1.703154e-001 2.206936e-001 
<VARIANCE> 39
4.355572e-001 6.123464e-001 7.207324e-001 4.233011e-001 7.703558e-001 6.852713e-001 7.108896e-001 7.371360e-001 6.492930e-001 7.381385e-001 6.921053e-001 7.122877e-001 3.326864e-001 4.949370e-001 1.569044e+000 1.145024e+000 1.300581e+000 1.081197e+000 1.343381e+000 1.103198e+000 1.488695e+000 1.114297e+000 1.456322e+000 1.460470e+000 1.360795e+000 4.081507e-001 4.918889e-001 6.558197e-001 6.510817e-001 5.136933e-001 6.925075e-001 6.837805e-001 7.572414e-001 8.089908e-001 7.195557e-001 7.900177e-001 7.337632e-001 8.407823e-001 3.963495e-001 
<GCONST> 6.119217e+001
<MIXTURE> 35 1.237349e-002
<MEAN> 39
-1.145934e+000 1.953390e-001 -2.902063e-001 4.313691e-001 -1.550299e-002 -2.832776e-001 3.023084e-001 -1.041109e-001 2.576079e-001 -1.545514e-001 8.806629e-002 2.108250e-001 7.849843e-002 1.914265e+000 -9.189887e-001 -4.283527e-001 -1.681763e+000 -5.306883e-001 -8.261355e-002 -5.655963e-001 -3.155555e-001 1.034928e-002 4.671415e-001 -2.645588e-001 -5.308297e-001 1.700823e+000 1.193095e+000 -7.227657e-001 -1.974103e-001 -9.345557e-001 1.810489e-001 5.954058e-001 -3.286735e-002 1.695991e-001 -9.352247e-002 3.934979e-001 -1.060242e-001 -4.101520e-001 6.563719e-001 
<VARIANCE> 39
9.353640e-001 4.855125e-001 4.509889e-001 3.815006e-001 6.125235e-001 6.545273e-001 5.751492e-001 7.489149e-001 6.892213e-001 6.315984e-001 7.506598e-001 7.154366e-001 3.228793e-001 1.505174e+000 1.103312e+000 1.393077e+000 9.107182e-001 1.197471e+000 1.684048e+000 1.513881e+000 1.627386e+000 1.436996e+000 1.520146e+000 1.934520e+000 1.361825e+000 1.176732e+000 1.374601e+000 9.352423e-001 9.988054e-001 8.969152e-001 1.116120e+000 1.044292e+000 1.104110e+000 1.378807e+000 1.151293e+000 1.071927e+000 1.346319e+000 1.232005e+000 9.794353e-001 
<GCONST> 7.045911e+001
<MIXTURE> 36 8.550824e-003
<MEAN> 39
8.875709e-001 -7.297943e-001 3.135321e-001 -4.104800e-001 -4.888141e-001 1.391271e-001 -1.465590e+000 -2.761895e-001 8.951423e-002 4.169126e-001 3.500526e-001 -9.012150e-001 9.052742e-001 -1.410500e-001 4.923994e-001 -1.473559e-001 1.565908e-001 5.426900e-001 1.931063e-001 3.026603e-001 9.931781e-003 -5.135471e-002 2.373919e-001 -1.433754e-001 7.733660e-002 -4.775034e-001 -7.923174e-001 8.854408e-001 -2.144038e-001 6.198307e-001 6.596023e-001 -3.374719e-001 1.306021e+000 1.887647e-001 4.734109e-002 -3.261157e-001 -4.131535e-001 7.976435e-001 -8.507915e-001 
<VARIANCE> 39
2.145090e-001 6.701378e-001 5.179393e-001 8.139777e-001 6.047056e-001 9.559193e-001 7.021912e-001 1.356133e+000 1.131647e+000 9.925200e-001 1.164439e+000 9.395522e-001 2.725207e-001 3.430464e-001 1.168308e+000 6.956450e-001 9.970529e-001 1.072853e+000 1.059232e+000 1.090564e+000 1.167393e+000 1.081850e+000 9.724799e-001 1.220856e+000 1.069984e+000 5.727680e-001 5.270773e-001 7.307075e-001 7.773601e-001 8.633329e-001 7.585293e-001 8.691296e-001 7.457733e-001 1.418432e+000 1.089968e+000 9.920337e-001 1.086327e+000 1.025197e+000 5.283752e-001 
<GCONST> 6.386715e+001
<MIXTURE> 37 1.462696e-002
<MEAN> 39
-2.508503e-001 -7.785769e-001 -1.081297e+000 -3.994921e-001 8.996668e-001 8.991473e-001 5.433744e-001 -8.957273e-002 2.453961e-001 -1.913148e-001 1.612107e-001 3.431553e-001 -1.696256e-001 4.363559e-001 5.491115e-001 2.329544e-001 -1.373889e-001 -3.584765e-001 9.057053e-002 1.335053e-001 2.648402e-001 -2.958021e-001 -3.628757e-001 -2.834013e-001 -5.866824e-003 -2.331927e-001 4.625551e-001 7.010939e-001 6.812150e-001 5.673122e-003 -8.171949e-001 -7.121758e-001 -4.928611e-001 6.443081e-002 -1.076302e-001 1.988708e-001 -1.639020e-001 -3.756656e-001 2.581340e-001 
<VARIANCE> 39
3.901257e-001 6.407024e-001 4.650565e-001 6.700442e-001 7.567378e-001 8.063322e-001 8.800669e-001 1.096041e+000 1.015551e+000 1.099798e+000 1.059793e+000 1.043978e+000 4.827961e-001 1.215391e+000 1.425857e+000 9.594975e-001 9.491702e-001 1.074453e+000 1.234289e+000 1.123697e+000 1.103165e+000 1.158396e+000 1.109320e+000 1.133656e+000 1.137978e+000 6.499044e-001 5.482677e-001 8.684378e-001 9.255335e-001 9.889892e-001 8.797515e-001 9.679035e-001 1.045976e+000 1.214117e+000 1.101437e+000 1.156642e+000 1.176216e+000 1.134176e+000 8.158509e-001 
<GCONST> 6.868072e+001
<MIXTURE> 38 1.051305e-002
<MEAN> 39
4.501647e-001 3.371465e-001 4.272091e-001 4.586235e-001 -8.718982e-002 -8.246133e-001 -2.600738e-001 -2.233974e-001 4.189691e-002 -9.878869e-002 -4.596436e-001 -6.928738e-002 3.907609e-001 -1.674501e+000 1.000870e+000 -3.036275e-001 9.868003e-001 9.427440e-001 6.140628e-001 9.256909e-001 5.337384e-002 3.634271e-001 -2.120719e-001 5.062124e-001 2.234472e-002 -8.736981e-001 -1.286126e+000 -7.672935e-001 -6.340740e-001 -5.509473e-001 -4.971107e-002 5.918283e-001 2.581811e-001 4.472933e-001 1.006577e-001 1.212590e-001 4.270839e-001 1.194025e-001 3.006577e-001 
<VARIANCE> 39
2.846398e-001 6.715873e-001 6.474193e-001 5.062497e-001 7.650723e-001 7.255393e-001 9.965069e-001 7.807736e-001 1.050882e+000 1.133481e+000 9.518898e-001 1.265798e+000 3.007445e-001 7.418353e-001 1.698064e+000 1.308548e+000 1.180089e+000 1.245421e+000 1.495327e+000 1.578108e+000 1.576290e+000 1.744925e+000 1.675646e+000 1.614522e+000 1.903354e+000 7.149773e-001 6.181974e-001 8.802881e-001 9.484049e-001 7.941724e-001 9.868768e-001 1.062491e+000 1.147126e+000 9.891226e-001 1.173804e+000 1.348033e+000 1.102916e+000 1.394472e+000 5.277437e-001 
<GCONST> 7.081793e+001
<MIXTURE> 39 8.789510e-003
<MEAN> 39
1.581290e-001 6.275751e-001 1.509629e+000 -2.822636e-001 -1.003964e+000 2.620446e-001 3.677779e-002 -6.789361e-001 -1.049140e+000 8.920474e-001 -5.433371e-001 1.048193e-001 3.815133e-001 8.750812e-002 2.197853e-001 -5.415082e-001 8.457890e-001 7.380562e-001 -7.398286e-002 2.646132e-001 4.466423e-002 3.850737e-001 -2.241072e-001 2.539998e-001 -1.654921e-001 -8.017457e-001 -2.566963e-001 -2.388743e-001 -1.014589e+000 6.214317e-001 8.098180e-001 -2.686542e-001 -8.968624e-003 5.009760e-001 8.435488e-001 -7.617952e-001 4.248019e-001 -1.967581e-001 -4.237949e-001 
<VARIANCE> 39
2.842912e-001 5.318641e-001 4.794239e-001 5.724011e-001 5.546841e-001 9.350233e-001 8.287137e-001 7.621095e-001 7.816264e-001 8.998499e-001 9.338120e-001 1.179561e+000 2.743590e-001 4.675543e-001 8.888786e-001 7.667741e-001 7.003619e-001 8.107624e-001 1.190942e+000 1.032470e+000 1.008878e+000 9.718116e-001 1.127313e+000 9.345796e-001 1.007686e+000 5.333996e-001 5.501455e-001 6.996435e-001 7.529399e-001 8.212883e-001 8.397144e-001 1.145847e+000 9.803168e-001 8.664410e-001 9.614013e-001 8.979772e-001 1.015980e+000 1.113654e+000 5.399741e-001 
<GCONST> 6.146220e+001
<MIXTURE> 40 2.394997e-002
<MEAN> 39
1.043213e+000 -9.874098e-002 -7.403330e-001 -1.716375e+000 -3.270986e-001 8.516890e-001 8.348272e-003 -3.839499e-001 -2.266987e-001 2.854251e-001 3.100069e-001 4.171071e-001 5.772318e-001 -4.897655e-002 -8.386183e-002 -1.878791e-001 1.533235e-001 3.154722e-001 2.582006e-001 3.616712e-001 1.868243e-001 1.539486e-001 -4.542778e-002 -4.741512e-002 2.633606e-002 -3.698437e-001 -2.393103e-001 1.767731e-001 2.802090e-001 8.611178e-001 2.831221e-001 -3.175361e-001 -1.011016e-001 1.013226e-001 1.433630e-001 -9.218392e-002 -2.442285e-001 -3.499861e-001 -3.922890e-001 
<VARIANCE> 39
1.394499e-001 6.054722e-001 4.552279e-001 3.524623e-001 9.483510e-001 7.189002e-001 1.177009e+000 9.121326e-001 9.020713e-001 1.001460e+000 1.077734e+000 9.889358e-001 2.793606e-001 1.175935e-001 7.048337e-001 3.857995e-001 6.282974e-001 6.895986e-001 6.238834e-001 6.421855e-001 7.162188e-001 8.116640e-001 8.541176e-001 8.018882e-001 9.305630e-001 3.768962e-001 1.515906e-001 4.306419e-001 4.318018e-001 5.129393e-001 5.793602e-001 7.134218e-001 6.578234e-001 6.440779e-001 6.867601e-001 7.258739e-001 7.092657e-001 7.409563e-001 2.925479e-001 
<GCONST> 5.004067e+001
<MIXTURE> 41 1.757445e-002
<MEAN> 39
-7.132540e-001 -8.673693e-001 -6.497496e-001 -6.444413e-002 3.250027e-001 -2.114905e-001 1.139987e-002 -6.605732e-002 2.257318e-001 4.328748e-002 1.352186e-001 4.459860e-002 -6.755252e-002 -9.595158e-001 -3.488551e-001 -1.952158e-001 -4.896133e-001 -3.825332e-002 -5.409364e-001 -2.956201e-001 -2.866971e-001 8.388335e-002 1.004589e-002 -2.009842e-001 1.009239e-002 1.752790e+000 4.624423e-001 1.026708e+000 7.665666e-001 5.323995e-001 -5.449549e-002 3.018974e-001 1.179431e-001 6.984200e-002 -1.113079e-001 -3.834542e-003 -5.610184e-002 -2.324587e-002 -3.922595e-001 
<VARIANCE> 39
3.533794e-001 7.753085e-001 8.874682e-001 6.455847e-001 8.960218e-001 8.873024e-001 8.062349e-001 8.192847e-001 8.007754e-001 8.332862e-001 7.863708e-001 7.103454e-001 4.505624e-001 1.192845e+000 1.293065e+000 1.305686e+000 8.504876e-001 1.216677e+000 1.155585e+000 1.025790e+000 1.047836e+000 1.007044e+000 1.034357e+000 1.049758e+000 9.451939e-001 1.130379e+000 6.582082e-001 9.074097e-001 1.462508e+000 8.860448e-001 1.072885e+000 1.202924e+000 1.028746e+000 9.837247e-001 9.668836e-001 9.574953e-001 1.008046e+000 8.828296e-001 1.355720e+000 
<GCONST> 6.862534e+001
<MIXTURE> 42 8.980420e-003
<MEAN> 39
5.133625e-001 -8.825793e-001 4.567195e-001 2.699281e-001 -3.981442e-001 -1.266090e+000 -1.397919e+000 1.077544e-001 4.322896e-001 1.040394e-001 -2.895603e-001 -4.339214e-001 1.113176e+000 4.572332e-001 4.117214e-001 -1.589415e+000 -7.083359e-001 1.197664e+000 1.185793e+000 -3.338068e-001 -9.650155e-001 1.066817e-001 1.310453e+000 2.880402e-001 -5.289419e-001 -2.481914e-001 -3.346942e-001 1.000268e+000 3.411088e-001 -3.691408e-001 -8.173190e-002 1.126356e+000 1.304116e+000 -4.403547e-001 -1.064533e+000 -3.405801e-001 5.149099e-001 5.701491e-001 -6.754080e-001 
<VARIANCE> 39
2.588192e-001 5.288496e-001 5.635817e-001 7.283147e-001 6.690281e-001 6.850227e-001 8.486206e-001 1.289426e+000 1.366670e+000 1.472073e+000 1.466709e+000 1.100719e+000 1.874149e-001 3.268750e-001 6.735172e-001 7.202551e-001 7.366710e-001 7.878181e-001 8.286127e-001 1.147024e+000 1.012634e+000 1.309546e+000 9.105399e-001 1.346388e+000 1.225088e+000 3.290132e-001 4.611223e-001 6.177172e-001 8.280263e-001 1.046609e+000 9.488749e-001 1.128692e+000 9.798034e-001 1.254834e+000 1.167478e+000 1.374926e+000 1.356083e+000 1.180628e+000 3.372238e-001 
<GCONST> 6.348538e+001
<MIXTURE> 43 5.420490e-002
<MEAN> 39
-3.363052e-001 -4.112752e-001 -3.825721e-001 1.777374e-001 2.898488e-001 2.321800e-001 4.388199e-001 3.414468e-001 3.741202e-001 -5.504090e-002 2.473105e-001 3.043976e-001 -1.109745e+000 -3.441435e-002 -1.364617e-002 -1.399961e-001 1.242639e-001 -1.243640e-001 -1.103602e-001 -8.834862e-002 3.799775e-002 -4.679900e-002 1.150772e-002 1.494009e-001 4.953591e-002 -3.374223e-001 2.249729e-001 3.779889e-001 1.848881e-001 1.381448e-001 3.847754e-002 4.067300e-002 -1.073677e-001 -1.715975e-001 -1.402210e-001 -8.500820e-002 -1.144093e-001 -1.524325e-001 1.965398e-001 
<VARIANCE> 39
2.515690e-001 5.218178e-001 4.715020e-001 4.342513e-001 5.918213e-001 7.145914e-001 6.752297e-001 7.794462e-001 7.387347e-001 8.779896e-001 8.428979e-001 8.219564e-001 2.256143e-001 3.652020e-001 7.146285e-001 6.484195e-001 5.728945e-001 6.973393e-001 7.829076e-001 7.271816e-001 7.455970e-001 7.830129e-001 8.660961e-001 8.200829e-001 8.309041e-001 4.023441e-001 2.422920e-001 4.451574e-001 5.302820e-001 4.512743e-001 5.663373e-001 6.355153e-001 6.420873e-001 6.804135e-001 7.217408e-001 7.867683e-001 7.410026e-001 7.822544e-001 3.055140e-001 
<GCONST> 5.123217e+001
<MIXTURE> 44 1.247822e-002
<MEAN> 39
8.127858e-001 -1.270183e+000 -1.042055e+000 -1.184492e+000 2.568977e-001 2.621975e-001 7.225699e-001 -5.438053e-001 6.286138e-001 2.107084e-001 3.196971e-001 -1.088667e+000 1.238095e+000 -1.480508e-001 4.166976e-001 3.217694e-001 6.692219e-001 1.833305e-001 -5.623918e-001 -3.987189e-001 4.289389e-001 4.223756e-002 2.349479e-001 -3.282638e-001 4.583964e-002 -3.891582e-001 -3.850208e-001 1.008022e+000 5.742021e-001 7.532647e-001 1.748038e-003 3.120816e-002 -4.181520e-001 3.008310e-001 -5.190690e-001 -1.289159e-002 -2.022698e-001 7.608383e-001 -9.197859e-001 
<VARIANCE> 39
2.316090e-001 4.594516e-001 4.132309e-001 5.910337e-001 8.228165e-001 1.135470e+000 9.085512e-001 8.931844e-001 9.048835e-001 1.181142e+000 1.265919e+000 7.478741e-001 1.786355e-001 2.160683e-001 1.096902e+000 5.928134e-001 7.304310e-001 9.532807e-001 1.068669e+000 1.100949e+000 9.151847e-001 9.342671e-001 1.068921e+000 1.110973e+000 1.144687e+000 4.444841e-001 4.429700e-001 5.850649e-001 6.006379e-001 6.570714e-001 9.312220e-001 1.016945e+000 8.753056e-001 9.009063e-001 8.835740e-001 1.092532e+000 1.049181e+000 7.975954e-001 3.745526e-001 
<GCONST> 5.944988e+001
<MIXTURE> 45 8.147121e-003
<MEAN> 39
6.883028e-001 -8.796294e-001 -6.935752e-001 -9.804119e-001 6.248935e-003 -1.918104e-001 -5.696593e-001 1.303210e-001 4.848190e-001 1.086632e+000 -4.049733e-001 -7.602402e-001 1.212428e+000 7.889926e-001 -1.533108e+000 -5.837361e-001 -1.195417e+000 2.595500e-001 4.932673e-001 1.535907e-002 6.879514e-001 2.123420e-001 4.403608e-001 -6.532459e-001 -5.050896e-001 1.174146e+000 -1.172785e+000 6.278815e-001 3.200357e-001 1.210087e+000 3.810666e-001 3.949294e-001 9.077727e-001 -7.185760e-002 -3.606263e-001 -1.107020e+000 2.323544e-001 6.986918e-001 -1.413364e+000 
<VARIANCE> 39
2.453707e-001 4.609627e-001 4.262354e-001 4.893293e-001 5.065036e-001 9.602238e-001 8.276011e-001 9.276150e-001 8.354731e-001 7.924071e-001 1.000926e+000 8.293993e-001 1.884715e-001 8.826940e-001 7.674694e-001 8.123802e-001 7.675401e-001 1.104578e+000 1.234923e+000 1.305175e+000 1.424575e+000 1.231793e+000 1.147981e+000 1.368944e+000 1.255919e+000 7.408870e-001 1.149898e+000 9.717036e-001 8.876938e-001 8.906884e-001 7.645785e-001 1.090731e+000 9.307382e-001 1.226547e+000 1.137500e+000 9.792639e-001 1.392698e+000 1.093261e+000 8.285655e-001 
<GCONST> 6.550227e+001
<MIXTURE> 46 3.857761e-003
<MEAN> 39
5.434030e-001 -7.426415e-001 2.367712e-001 8.843470e-002 -6.893066e-002 -1.164011e+000 -1.119564e+000 6.950128e-001 2.084212e-001 7.349886e-002 -9.038025e-001 2.990175e-001 8.626720e-001 -3.300072e-001 -4.465466e-001 1.254193e+000 1.100360e-001 -1.149960e+000 -9.144559e-001 5.063838e-001 9.460827e-001 -4.770964e-001 -5.780787e-001 -8.880081e-002 8.842604e-001 5.881923e-001 -2.187651e-001 9.903747e-001 2.366154e-001 -1.320906e-001 -1.625117e-001 1.181832e+000 1.043670e+000 -7.982532e-001 -8.309264e-001 -6.459817e-002 9.015157e-001 -1.499467e-001 -9.236274e-001 
<VARIANCE> 39
3.084422e-001 6.286485e-001 7.679298e-001 8.928451e-001 7.536277e-001 8.624359e-001 9.694531e-001 9.549959e-001 1.070101e+000 1.071945e+000 1.019139e+000 1.243231e+000 3.031249e-001 5.353708e-001 8.987325e-001 1.112124e+000 1.330613e+000 1.210535e+000 1.191687e+000 1.393441e+000 1.304296e+000 1.314400e+000 1.373594e+000 1.309891e+000 1.246302e+000 9.457798e-001 5.930715e-001 1.013579e+000 1.156810e+000 1.419253e+000 1.180103e+000 1.208533e+000 1.220095e+000 1.194392e+000 1.469932e+000 1.414484e+000 1.246006e+000 1.495079e+000 8.456209e-001 
<GCONST> 7.188602e+001
<MIXTURE> 47 2.230384e-002
<MEAN> 39
5.048608e-001 9.912770e-001 7.145302e-001 9.699432e-001 6.057988e-001 3.004810e-001 1.293159e-001 -1.999277e-001 -3.578799e-001 -1.375476e-001 -1.532985e-001 -3.525008e-001 -7.580199e-001 -1.122512e+000 -2.216659e-001 -5.005457e-001 3.127052e-001 4.828019e-001 5.073250e-001 6.760850e-001 3.715305e-001 4.871851e-001 -8.947331e-002 4.124554e-001 1.711268e-001 -8.006561e-001 -7.733105e-001 -1.160890e+000 -1.015438e+000 -1.203005e+000 -8.225955e-001 -4.864169e-001 -1.764292e-001 2.079782e-001 3.694246e-001 2.747045e-001 1.774422e-001 3.110487e-001 1.257637e+000 
<VARIANCE> 39
2.559907e-001 4.204563e-001 4.589294e-001 3.798950e-001 6.532289e-001 6.215232e-001 6.193525e-001 7.843311e-001 7.058738e-001 7.781255e-001 8.269806e-001 8.307491e-001 2.487744e-001 6.283968e-001 9.377351e-001 9.653815e-001 9.984879e-001 1.061740e+000 1.006577e+000 1.020411e+000 1.079596e+000 1.086147e+000 1.193996e+000 1.138710e+000 1.301923e+000 8.911684e-001 6.514250e-001 6.891163e-001 7.594199e-001 6.966216e-001 9.163599e-001 8.491824e-001 8.931887e-001 9.642036e-001 9.224014e-001 9.675248e-001 9.896205e-001 9.851970e-001 9.259815e-001 
<GCONST> 6.179441e+001
<MIXTURE> 48 1.404331e-002
<MEAN> 39
9.912569e-001 8.463109e-001 -1.661399e-001 -1.526768e+000 -1.081063e+000 5.754637e-001 7.192309e-002 7.967675e-002 -7.011364e-001 -6.917454e-001 -4.395997e-001 3.403139e-002 3.971917e-001 1.206037e-001 6.477621e-001 4.814735e-001 3.734169e-003 -5.946343e-001 -5.036125e-001 2.015070e-002 7.445925e-001 7.906727e-001 8.179648e-002 -6.620688e-001 -5.939388e-001 -6.485479e-001 -3.002357e-001 -4.967923e-001 1.375386e-001 9.482457e-001 8.085464e-001 -3.245142e-001 -6.265717e-001 -5.486494e-001 2.449472e-001 7.825230e-001 7.118760e-001 -2.821541e-002 -1.083510e-001 
<VARIANCE> 39
1.624347e-001 4.725628e-001 5.508486e-001 5.446437e-001 9.049751e-001 7.849163e-001 8.089085e-001 1.015523e+000 9.707698e-001 9.893619e-001 9.978430e-001 1.295942e+000 1.927903e-001 1.473529e-001 4.977996e-001 5.151848e-001 7.172024e-001 6.554082e-001 6.092051e-001 7.471985e-001 8.108943e-001 1.004792e+000 1.030190e+000 1.129041e+000 1.137143e+000 2.418432e-001 2.051923e-001 3.850917e-001 5.346222e-001 5.481633e-001 6.871889e-001 7.092678e-001 7.711598e-001 8.206462e-001 1.014792e+000 7.695282e-001 9.697588e-001 1.200779e+000 2.237723e-001 
<GCONST> 5.324199e+001
<MIXTURE> 49 1.290707e-002
<MEAN> 39
-1.799252e+000 8.853948e-001 -1.941647e-001 -3.467252e-001 8.439115e-001 -3.543318e-001 2.804296e-001 1.833219e-001 -8.433703e-002 3.470927e-001 -9.216633e-002 6.545687e-002 2.397529e-001 -7.912163e-001 -1.138825e-002 4.626982e-001 -4.118057e-001 -2.499307e-001 1.344595e-001 -2.530772e-001 -9.109705e-002 6.261014e-002 -5.028569e-002 1.794841e-002 -8.839166e-002 1.129320e+000 1.595121e+000 -7.302930e-001 4.630289e-001 8.717430e-001 -7.033273e-001 3.582926e-001 -2.132492e-001 -2.045832e-001 1.676317e-001 -2.758255e-001 7.331596e-002 -5.776307e-002 -7.397239e-001 
<VARIANCE> 39
3.742936e-001 5.029688e-001 4.876610e-001 4.724841e-001 4.482491e-001 5.490654e-001 6.122306e-001 6.886408e-001 5.709980e-001 6.386675e-001 6.638484e-001 6.348713e-001 3.892628e-001 8.770670e-001 9.554117e-001 8.386290e-001 5.869877e-001 5.880918e-001 7.214310e-001 6.175406e-001 6.605346e-001 6.374098e-001 6.274263e-001 6.747625e-001 6.665484e-001 1.221994e+000 7.791487e-001 8.599463e-001 1.259117e+000 7.945320e-001 7.505103e-001 8.680127e-001 8.532140e-001 9.497091e-001 8.313814e-001 8.218514e-001 8.144280e-001 8.608899e-001 1.118716e+000 
<GCONST> 5.764016e+001
<MIXTURE> 50 8.762108e-003
<MEAN> 39
1.070200e-002 5.863229e-001 1.779571e+000 -4.260744e-001 -1.178170e+000 -1.519045e-001 -3.120393e-001 -8.957915e-001 -1.037717e+000 5.375654e-001 -4.989675e-001 6.634680e-002 7.031780e-001 4.960061e-001 -5.349841e-001 8.113495e-001 -1.038534e+000 -9.179597e-001 -4.390554e-001 -2.027654e-001 1.512730e-002 -7.013949e-001 8.617361e-001 -3.671453e-001 5.327733e-001 9.079455e-001 -4.935973e-001 -4.488908e-001 -1.712041e+000 6.214623e-001 8.416569e-001 3.409560e-002 4.525006e-001 7.824896e-001 9.916742e-001 -2.606262e-001 5.491664e-001 -5.073887e-002 -6.290519e-001 
<VARIANCE> 39
2.473065e-001 5.559217e-001 5.368166e-001 4.276900e-001 5.833723e-001 8.717743e-001 7.087331e-001 6.892442e-001 7.519905e-001 8.021139e-001 8.943435e-001 1.092662e+000 2.149803e-001 9.134610e-001 1.128558e+000 9.762492e-001 7.015613e-001 8.539090e-001 1.674733e+000 1.225238e+000 1.324177e+000 1.111551e+000 1.146479e+000 1.296158e+000 1.359806e+000 7.177737e-001 7.657968e-001 8.871540e-001 8.201149e-001 7.974998e-001 1.015408e+000 1.123632e+000 1.108649e+000 9.008521e-001 9.930360e-001 1.088884e+000 1.070189e+000 1.281339e+000 6.811359e-001 
<GCONST> 6.506364e+001
<MIXTURE> 51 2.060672e-002
<MEAN> 39
-4.230489e-002 5.567239e-002 -4.476816e-001 5.938253e-001 1.629373e-001 2.080204e-001 2.878584e-001 2.804120e-001 1.860078e-001 7.479599e-002 3.514909e-001 1.634885e-001 -1.538335e+000 -1.052325e+000 -2.923895e-001 1.188335e-001 -5.824168e-001 1.899643e-002 -4.216369e-001 -3.231727e-003 -3.501456e-001 4.242606e-002 -2.631821e-003 -1.495685e-001 -9.514298e-002 1.511412e+000 -7.274728e-001 1.670082e-001 3.502991e-001 -2.290933e-001 5.053107e-002 -1.591152e-001 -3.273258e-002 -1.894633e-001 5.088212e-003 -1.719293e-002 -1.608611e-001 -7.387978e-002 1.530489e+000 
<VARIANCE> 39
2.507314e-001 4.480304e-001 3.704885e-001 2.794032e-001 4.557727e-001 4.188914e-001 4.656685e-001 5.829546e-001 5.922803e-001 5.350662e-001 5.867349e-001 6.133010e-001 2.665389e-001 5.922001e-001 1.258833e+000 1.170540e+000 6.851676e-001 9.485057e-001 8.264828e-001 8.611177e-001 7.811261e-001 7.604729e-001 7.910653e-001 7.528989e-001 6.931699e-001 7.402306e-001 6.164295e-001 9.511462e-001 8.217039e-001 6.313276e-001 6.986655e-001 7.147992e-001 6.609087e-001 6.917753e-001 6.826928e-001 6.730581e-001 6.993403e-001 6.790032e-001 1.124693e+000 
<GCONST> 5.408394e+001
<MIXTURE> 52 8.537920e-003
<MEAN> 39
7.390170e-001 -1.401422e+000 -1.055014e+000 -1.159462e+000 4.707086e-001 7.743995e-001 7.416984e-002 2.038873e-001 2.180316e-001 4.140346e-001 -3.902885e-001 -8.044122e-001 1.218176e+000 9.581551e-002 -3.327700e-001 -3.985480e-001 -1.367125e-001 5.964373e-001 7.340178e-001 3.250313e-001 -2.689570e-001 -1.762536e-001 -2.843748e-001 6.639206e-002 -9.816668e-002 -3.263628e-002 -4.017025e-001 1.184627e+000 7.133721e-001 8.183742e-001 -4.366308e-001 -7.406400e-001 -2.699777e-002 -2.719484e-001 -1.050367e-001 -2.920806e-001 2.874538e-001 6.977052e-001 -9.344724e-001 
<VARIANCE> 39
2.615476e-001 4.776364e-001 4.504309e-001 7.941330e-001 7.296136e-001 9.358259e-001 1.023131e+000 9.694834e-001 1.052134e+000 1.103881e+000 1.047006e+000 8.639071e-001 2.826815e-001 2.433820e-001 7.923882e-001 4.589141e-001 7.073113e-001 7.789375e-001 1.016421e+000 9.714289e-001 1.025818e+000 8.843355e-001 1.039854e+000 1.282515e+000 1.220193e+000 4.172065e-001 4.874642e-001 6.417369e-001 7.172378e-001 8.698260e-001 8.198507e-001 8.402116e-001 1.010280e+000 1.017675e+000 1.141767e+000 1.065180e+000 1.031518e+000 9.949755e-001 4.746099e-001 
<GCONST> 6.094460e+001
<MIXTURE> 53 6.458484e-003
<MEAN> 39
-1.486490e+000 8.664169e-001 5.710466e-001 2.227794e-001 3.687386e-001 6.428454e-003 5.735605e-001 -1.818468e-001 1.310307e-001 1.241123e-001 -1.933660e-001 1.503631e-001 3.463347e-001 1.178012e+000 -4.269118e-001 1.666021e+000 3.373170e-001 -1.188304e+000 -7.314247e-001 -9.161136e-001 -3.295919e-001 -5.257072e-001 -9.433430e-001 -1.299304e-001 -5.937676e-002 1.035792e+000 1.669628e+000 -1.019846e+000 2.124890e-001 1.245247e-001 -9.560556e-001 -5.016337e-001 -9.429308e-001 9.080654e-002 -4.339527e-001 -4.800735e-001 2.690329e-001 -1.772020e-001 -2.739975e-002 
<VARIANCE> 39
7.215201e-001 6.794792e-001 8.559132e-001 6.409164e-001 7.033395e-001 8.444300e-001 6.669863e-001 8.608724e-001 8.293863e-001 8.382421e-001 8.631146e-001 7.724049e-001 3.131624e-001 1.112037e+000 1.169917e+000 1.155234e+000 1.129608e+000 7.902061e-001 1.066247e+000 9.157132e-001 9.731835e-001 1.119078e+000 1.097135e+000 1.043132e+000 1.076429e+000 7.633753e-001 1.300778e+000 1.051608e+000 1.698344e+000 1.315259e+000 1.066149e+000 1.451715e+000 9.728501e-001 1.358920e+000 1.392532e+000 1.350674e+000 1.278272e+000 1.284933e+000 8.908073e-001 
<GCONST> 7.049721e+001
<MIXTURE> 54 8.965843e-003
<MEAN> 39
2.636239e-001 -5.800942e-001 1.559485e+000 6.258445e-001 -1.335385e+000 -1.402035e+000 -5.487880e-001 3.433242e-001 -8.339183e-001 -9.791967e-001 4.647763e-001 1.356860e-001 1.052857e+000 4.439899e-001 -4.468337e-001 -1.201422e+000 -1.107893e-001 4.113324e-001 -5.074964e-001 -6.565263e-001 2.989373e-001 3.780774e-001 5.399918e-001 1.705575e-001 -1.742435e-001 1.959564e-001 -2.894892e-001 7.382691e-001 -1.009384e+000 -4.047341e-001 1.330711e+000 1.356898e+000 1.033512e-001 -6.697884e-001 7.625505e-001 1.033357e+000 -4.611186e-001 -4.720000e-001 -8.536834e-001 
<VARIANCE> 39
2.645617e-001 5.584820e-001 4.732617e-001 5.594110e-001 5.543477e-001 6.717293e-001 1.155818e+000 1.167252e+000 1.166070e+000 1.201309e+000 1.192994e+000 1.143502e+000 2.163732e-001 3.539548e-001 7.803162e-001 8.761256e-001 7.184055e-001 1.081582e+000 1.011873e+000 1.164574e+000 1.069873e+000 1.478552e+000 1.206813e+000 1.291167e+000 1.362959e+000 4.913698e-001 6.048484e-001 7.420902e-001 9.529041e-001 9.992262e-001 8.418875e-001 1.109408e+000 1.440046e+000 1.276293e+000 1.291649e+000 1.214942e+000 1.432897e+000 1.383836e+000 5.107598e-001 
<GCONST> 6.601228e+001
<MIXTURE> 55 8.880629e-003
<MEAN> 39
6.219988e-001 2.470220e-001 -7.176058e-003 7.049006e-001 7.432193e-001 -5.348959e-002 -7.208683e-001 -7.423713e-002 5.289242e-001 9.371179e-002 -3.244756e-001 -3.716205e-001 -2.415102e-001 -6.340546e-001 5.409623e-001 1.594610e-001 6.570627e-001 4.132283e-001 5.228786e-001 5.790623e-001 1.120661e-001 -1.204721e-001 -4.943001e-002 2.602178e-001 1.666868e-001 -1.096702e+000 -7.522830e-001 -6.317756e-001 -1.651371e-001 -8.875841e-001 -7.640211e-001 3.516816e-002 8.236918e-001 1.790851e-001 -4.581147e-001 -7.993114e-002 2.855001e-001 3.725703e-001 5.632856e-001 
<VARIANCE> 39
3.138733e-001 5.613956e-001 5.130085e-001 5.422483e-001 6.905537e-001 7.953783e-001 7.375827e-001 9.969799e-001 7.353182e-001 8.422757e-001 9.506453e-001 8.809225e-001 4.117061e-001 8.118911e-001 9.143583e-001 9.501038e-001 9.605225e-001 1.070911e+000 1.243209e+000 1.240928e+000 1.432499e+000 1.353394e+000 1.149696e+000 1.214096e+000 1.209128e+000 9.235458e-001 6.987562e-001 9.158630e-001 1.215212e+000 9.425815e-001 1.144845e+000 1.109184e+000 8.659193e-001 1.220267e+000 9.880316e-001 1.005369e+000 1.169085e+000 1.030091e+000 7.441189e-001 
<GCONST> 6.729672e+001
<MIXTURE> 56 1.409091e-002
<MEAN> 39
7.819977e-001 4.688607e-001 -4.622268e-001 -4.918923e-001 1.954610e-001 8.412533e-001 3.260439e-001 -2.405923e-001 -1.511796e-001 -1.948961e-002 2.580014e-001 1.469316e-001 -2.292025e-001 -8.311682e-001 3.316053e-002 1.128691e-001 1.323241e+000 8.569059e-001 2.782274e-001 5.766717e-001 4.887544e-001 3.628700e-001 -9.459162e-002 -3.384327e-002 1.572320e-001 -1.209588e+000 -5.665147e-001 -6.679214e-001 -4.164853e-002 -1.204673e-001 -2.231328e-001 -4.399638e-001 -2.276749e-001 1.860356e-001 2.612200e-001 9.166574e-002 -8.678060e-002 -8.978733e-002 1.919808e-001 
<VARIANCE> 39
2.198207e-001 5.517502e-001 4.841247e-001 6.195267e-001 8.101297e-001 7.229198e-001 9.680237e-001 9.475062e-001 1.154583e+000 1.096976e+000 1.045577e+000 1.109034e+000 3.808995e-001 4.212843e-001 1.073972e+000 9.168064e-001 8.457916e-001 1.071005e+000 1.194673e+000 1.142148e+000 1.190537e+000 1.248012e+000 1.218133e+000 1.281786e+000 1.227662e+000 6.021308e-001 5.547369e-001 6.453119e-001 7.392993e-001 8.565170e-001 9.063307e-001 9.521184e-001 9.891467e-001 1.004678e+000 1.220337e+000 1.098501e+000 1.079780e+000 1.036079e+000 5.787679e-001 
<GCONST> 6.525294e+001
<MIXTURE> 57 1.044161e-002
<MEAN> 39
-1.621831e+000 -7.621175e-002 3.566072e-001 -3.155727e-001 -4.553639e-001 4.010742e-001 2.978360e-001 -5.459569e-001 4.222058e-001 8.759046e-002 4.252569e-004 -1.013679e-001 4.409244e-001 -8.794488e-002 -2.460667e-001 5.908570e-001 2.266761e-001 -5.252525e-001 -1.093478e-001 2.288054e-001 -2.490370e-001 -1.246132e-002 -4.242625e-002 -2.742126e-002 -2.702614e-003 5.429981e-001 1.465373e+000 3.259007e-001 -6.745034e-002 8.704605e-001 5.330977e-001 -5.244296e-001 -7.917301e-002 5.895323e-001 -4.193375e-001 -2.484930e-001 1.503719e-001 1.323232e-001 -1.100787e+000 
<VARIANCE> 39
4.864469e-001 6.562519e-001 6.824297e-001 5.431618e-001 6.861353e-001 7.021910e-001 7.589168e-001 7.679806e-001 7.335796e-001 7.245689e-001 9.204594e-001 8.122127e-001 6.296232e-001 9.232458e-001 8.960765e-001 8.422618e-001 7.726828e-001 7.909840e-001 8.378812e-001 7.881650e-001 7.743890e-001 7.338320e-001 6.499477e-001 7.808109e-001 6.933862e-001 8.675582e-001 8.616438e-001 1.120126e+000 1.545658e+000 7.625062e-001 9.119585e-001 1.063950e+000 1.035463e+000 8.998356e-001 9.420248e-001 9.395937e-001 1.054844e+000 9.847829e-001 7.996895e-001 
<GCONST> 6.358757e+001
<MIXTURE> 58 1.588449e-002
<MEAN> 39
4.363272e-001 -1.039754e+000 9.831077e-001 -5.978611e-002 -1.202929e+000 -1.433790e+000 -2.919345e-001 7.082723e-001 1.442314e-002 -2.011428e-001 -1.643388e-001 5.801569e-001 1.197299e+000 2.008022e-001 -2.774969e-001 -9.122277e-001 -7.584219e-002 6.976263e-001 4.147939e-002 -1.833987e-001 4.736474e-001 7.141246e-001 2.688700e-001 -5.621251e-001 -2.206330e-001 -3.618678e-002 -9.030763e-002 7.566198e-001 7.114660e-003 2.815157e-001 5.678971e-001 5.934477e-001 -2.121022e-001 -5.950224e-001 -1.598573e-001 -1.616089e-002 -1.595757e-001 -3.946971e-001 -5.385052e-001 
<VARIANCE> 39
1.954830e-001 5.091225e-001 4.690855e-001 5.125765e-001 4.410047e-001 4.539052e-001 1.202643e+000 9.338320e-001 9.715727e-001 8.197754e-001 8.811006e-001 8.147027e-001 1.295393e-001 1.170422e-001 4.789512e-001 4.431782e-001 4.370575e-001 5.829210e-001 6.231439e-001 8.557202e-001 8.066873e-001 7.047859e-001 1.063360e+000 8.281054e-001 9.145367e-001 2.029829e-001 1.631232e-001 4.158265e-001 4.494966e-001 4.051704e-001 4.638182e-001 5.863929e-001 8.089441e-001 7.535272e-001 6.650458e-001 6.481755e-001 7.577125e-001 7.229265e-001 2.043937e-001 
<GCONST> 4.656010e+001
<MIXTURE> 59 8.094152e-002
<MEAN> 39
-4.003569e-001 -1.461566e-001 -2.537834e-001 4.210774e-001 3.589694e-001 3.551123e-002 3.510265e-001 2.746880e-001 2.115019e-001 -3.503728e-002 2.553027e-001 2.245929e-001 -1.201985e+000 5.042329e-002 4.289443e-002 -1.058250e-002 4.030328e-002 -2.302855e-002 -1.168155e-002 -5.664140e-003 1.275713e-002 -6.343422e-003 -1.054371e-002 7.800533e-003 2.868189e-003 -1.116010e-001 1.089939e-002 2.844136e-002 2.590564e-002 -1.536349e-002 5.842874e-003 3.642485e-002 1.700305e-003 -2.310333e-002 -1.388344e-002 6.084067e-003 -1.298345e-002 -2.209278e-002 6.809731e-002 
<VARIANCE> 39
2.821040e-001 5.473666e-001 4.037814e-001 2.738928e-001 4.232417e-001 5.358161e-001 4.984092e-001 5.953738e-001 6.551839e-001 7.116251e-001 7.101492e-001 6.813264e-001 2.739747e-001 6.625091e-002 1.585577e-001 1.921241e-001 1.810386e-001 2.690635e-001 3.222153e-001 3.678205e-001 4.054901e-001 4.398282e-001 4.747932e-001 4.700932e-001 5.170216e-001 6.765408e-002 6.547053e-002 1.542999e-001 1.976024e-001 1.896024e-001 2.680566e-001 3.070359e-001 3.443279e-001 3.781812e-001 4.068614e-001 4.311874e-001 4.296789e-001 4.649355e-001 6.275734e-002 
<GCONST> 2.565312e+001
<MIXTURE> 60 2.486531e-002
<MEAN> 39
6.290200e-001 -2.552696e-001 -7.672846e-001 -4.066626e-001 7.737745e-001 5.504895e-001 -1.412911e-001 1.755641e-001 3.133123e-001 -1.019956e-002 -2.734525e-001 -3.359437e-001 -4.527961e-002 -1.108369e-001 5.000581e-001 4.034104e-001 7.773303e-001 1.509823e-001 2.548066e-002 1.428434e-001 -7.674287e-002 -2.510393e-001 -1.025857e-001 9.321937e-002 -4.554546e-002 -8.463038e-001 -1.792278e-001 -4.246425e-002 4.099712e-001 2.949095e-001 -2.677726e-001 -1.012830e-001 1.900847e-001 -7.022844e-002 -6.307531e-002 5.869480e-002 1.178041e-001 2.141828e-001 -1.434570e-001 
<VARIANCE> 39
1.997720e-001 5.010547e-001 4.925087e-001 5.669755e-001 6.006880e-001 8.809334e-001 1.007482e+000 8.401408e-001 8.755872e-001 1.044167e+000 9.868360e-001 9.411961e-001 4.347585e-001 1.628969e-001 4.635458e-001 5.880804e-001 5.251910e-001 6.925673e-001 7.737538e-001 7.684944e-001 8.353110e-001 8.398622e-001 8.815293e-001 8.679522e-001 8.530759e-001 2.673713e-001 1.605146e-001 3.878064e-001 5.507779e-001 4.310428e-001 5.918800e-001 6.252873e-001 7.111738e-001 6.352669e-001 7.186569e-001 7.355060e-001 8.145165e-001 6.967235e-001 2.130466e-001 
<GCONST> 5.080103e+001
<MIXTURE> 61 7.140452e-003
<MEAN> 39
6.783991e-001 -3.196146e-001 -3.896189e-001 -6.260346e-001 1.612148e-001 2.114068e-002 -1.176739e+000 -1.050242e+000 -6.170003e-001 9.006130e-001 7.637112e-001 -1.302306e-001 9.572357e-001 5.150172e-001 8.865808e-001 -9.200522e-001 -1.422762e+000 -7.139486e-002 1.649189e+000 1.035522e+000 -4.697908e-001 -1.204049e+000 -1.942879e-001 7.167200e-001 9.424621e-001 -3.834835e-001 -3.977992e-001 5.045983e-001 1.153107e+000 2.395232e-001 -1.065435e+000 -4.037727e-001 1.044108e+000 1.209300e+000 8.687906e-002 -1.502592e+000 -9.138041e-001 2.176944e-001 -4.985621e-001 
<VARIANCE> 39
2.632058e-001 4.807415e-001 5.639221e-001 9.072107e-001 7.686837e-001 7.902639e-001 9.158353e-001 9.364158e-001 1.374442e+000 1.320052e+000 1.583340e+000 1.160646e+000 1.888359e-001 2.832206e-001 5.582786e-001 7.195254e-001 6.609867e-001 9.210211e-001 8.825926e-001 1.020808e+000 1.150886e+000 1.026846e+000 1.232234e+000 1.156658e+000 1.172375e+000 3.165488e-001 4.254040e-001 5.602843e-001 7.110052e-001 8.668910e-001 8.785726e-001 9.800096e-001 1.102236e+000 9.972076e-001 1.446318e+000 9.845182e-001 1.523988e+000 1.293772e+000 3.281443e-001 
<GCONST> 6.252594e+001
<MIXTURE> 62 1.346823e-002
<MEAN> 39
7.456616e-001 -4.683789e-001 -7.703229e-002 -3.928250e-001 1.487316e-001 -9.272111e-001 -4.188225e-001 3.882749e-001 6.554974e-002 4.190955e-001 -6.990665e-001 1.857150e-001 7.959681e-001 -4.613698e-001 1.445088e+000 4.563577e-001 1.367355e+000 6.109246e-001 2.490809e-001 5.017777e-002 -4.776459e-001 -9.333340e-002 -2.925597e-001 3.000571e-001 -5.696086e-002 -1.403498e+000 -9.146168e-001 9.002338e-002 -1.132041e-001 4.930585e-001 5.860843e-002 1.159269e+000 7.256933e-001 -2.518876e-001 -6.249801e-004 -3.503018e-001 6.706901e-001 -3.422915e-001 -7.192200e-001 
<VARIANCE> 39
1.989666e-001 4.593239e-001 6.313715e-001 4.920688e-001 8.841385e-001 8.605014e-001 1.153973e+000 1.025326e+000 1.131561e+000 1.188037e+000 1.194353e+000 1.339860e+000 1.899532e-001 5.702672e-001 6.951160e-001 9.576215e-001 6.129194e-001 9.395418e-001 1.204139e+000 1.387897e+000 1.259944e+000 1.242464e+000 1.159840e+000 1.225321e+000 1.250855e+000 4.703546e-001 6.672496e-001 9.755043e-001 1.082779e+000 8.564067e-001 1.193499e+000 1.031632e+000 1.210592e+000 1.265393e+000 1.361246e+000 1.465396e+000 1.351406e+000 1.418314e+000 5.391409e-001 
<GCONST> 6.723079e+001
<MIXTURE> 63 1.455022e-002
<MEAN> 39
4.567690e-001 3.578892e-001 7.895856e-001 6.260954e-001 -1.426891e-001 -8.690795e-001 -1.179822e-001 5.386925e-001 -5.984162e-001 -4.923295e-001 1.523539e-002 3.136924e-001 -4.539787e-002 2.495549e-003 5.130599e-001 -1.861874e-001 6.786651e-001 7.597380e-001 4.788574e-001 1.803587e-001 -2.874064e-001 2.970398e-001 1.158154e-001 -1.020177e-002 -2.767197e-001 -9.827463e-001 -3.550426e-001 -2.789415e-001 -2.003393e-001 -2.714752e-001 -2.048631e-002 6.730065e-001 1.952914e-001 -3.220816e-001 3.861981e-001 3.904425e-001 -4.998250e-002 -3.034071e-001 2.721353e-002 
<VARIANCE> 39
2.466630e-001 5.316985e-001 5.073874e-001 4.279238e-001 6.448028e-001 5.767940e-001 7.863461e-001 8.185708e-001 8.288454e-001 7.951473e-001 9.588682e-001 1.111027e+000 3.324011e-001 3.571367e-001 6.663776e-001 1.112205e+000 5.847437e-001 8.646086e-001 9.781684e-001 1.059650e+000 1.197363e+000 1.082234e+000 1.097140e+000 1.007469e+000 1.105503e+000 4.762238e-001 3.360648e-001 5.477759e-001 8.709423e-001 5.717524e-001 6.920421e-001 6.630354e-001 7.357830e-001 8.265077e-001 8.060549e-001 7.226093e-001 8.142423e-001 8.798626e-001 3.702863e-001 
<GCONST> 5.744271e+001
<MIXTURE> 64 5.538246e-003
<MEAN> 39
1.116536e+000 6.376477e-001 -4.933052e-001 -1.345110e+000 -4.111509e-001 9.605700e-001 -3.180365e-001 -2.574731e-001 -1.346346e+000 -3.621300e-001 6.348979e-002 7.032129e-001 3.894688e-001 -9.509978e-002 -9.398950e-001 -3.400205e-002 5.464047e-001 9.042265e-001 5.256971e-002 -6.853862e-001 -9.070496e-001 -9.839343e-002 9.462907e-001 6.594968e-001 3.743353e-001 3.830248e-001 -6.993749e-001 -4.693348e-001 4.848252e-001 1.221244e+000 3.303443e-001 -9.568948e-001 -2.022937e-001 1.984476e-001 1.426196e+000 5.793171e-001 -2.870300e-001 -1.028489e+000 -2.715265e-001 
<VARIANCE> 39
2.403905e-001 4.927165e-001 5.516871e-001 8.677066e-001 1.007724e+000 6.993202e-001 8.636643e-001 1.199968e+000 8.187012e-001 1.060745e+000 9.552885e-001 1.021508e+000 2.725551e-001 3.748961e-001 8.965899e-001 7.525797e-001 1.419650e+000 1.184171e+000 1.018495e+000 1.174895e+000 1.286106e+000 1.315004e+000 1.286136e+000 1.357860e+000 1.384779e+000 8.574675e-001 5.369559e-001 9.040743e-001 8.751566e-001 1.120024e+000 1.207267e+000 1.018472e+000 1.128443e+000 1.383807e+000 1.012076e+000 1.115189e+000 1.108317e+000 1.131206e+000 6.737685e-001 
<GCONST> 6.746871e+001
<TRANSP> 3
 0.000000e+000 1.000000e+000 0.000000e+000
 0.000000e+000 9.973643e-001 2.635741e-003
 0.000000e+000 0.000000e+000 0.000000e+000
<ENDHMM>
